conv1d/kernel:0
(2, 256, 32)
[[[ 0.03009059  0.09372601  0.08130877 ...  0.01848509  0.01288579
    0.02450272]
  [-0.05688961  0.04888144  0.02374204 ... -0.07039894  0.09486636
   -0.02862894]
  [ 0.04915524  0.00999841  0.04408728 ...  0.05246614 -0.05003541
    0.05116402]
  ...
  [-0.02622395  0.09020375  0.04519634 ...  0.01474815  0.07745173
    0.05341701]
  [ 0.04498659  0.00035555  0.028059   ...  0.0701081  -0.07038372
    0.0942971 ]
  [ 0.06826075  0.00841155  0.01072183 ... -0.01680935  0.02681078
   -0.02669934]]

 [[ 0.05907572  0.06895535 -0.08286603 ...  0.03337069 -0.00737952
    0.04969173]
  [-0.0397664   0.08022723  0.02220622 ... -0.02513676  0.01283769
   -0.03099936]
  [-0.09714565 -0.0709587   0.05856663 ... -0.00791699 -0.03190912
   -0.10049515]
  ...
  [-0.0479014  -0.01163835 -0.07342681 ...  0.02568163 -0.01852137
    0.08576941]
  [ 0.05088386 -0.06501641  0.01707361 ... -0.09507466  0.04170313
   -0.06343549]
  [ 0.07152706 -0.04466994  0.02821901 ...  0.0503932  -0.00099786
    0.03353119]]]
conv1d/bias:0
(32,)
[-1.4379611e-03 -3.2446412e-03 -3.2139348e-03  2.8105164e-03
  2.3306282e-03 -3.2819319e-03 -3.5859616e-03 -3.1367959e-03
  2.2299027e-03 -2.2245045e-03 -9.5805118e-04 -2.5643152e-05
 -5.4814818e-04 -3.2005981e-03 -3.4094763e-03 -3.4349789e-03
 -6.4332434e-04 -2.8447758e-03  3.1237993e-03  3.4962166e-03
  3.5078540e-03 -2.8666928e-03  3.2697532e-03  3.7395910e-03
 -2.4881833e-03  1.3121851e-03  3.0497878e-03 -1.2714218e-03
  2.9630088e-03 -2.7707256e-03  6.3922722e-04  1.7345628e-03]
conv1d_1/kernel:0
(2, 32, 64)
[[[ 0.10743479  0.10259558 -0.02240255 ...  0.1614405  -0.10741998
   -0.10259227]
  [ 0.05882313  0.07455848 -0.01785229 ...  0.11121505  0.11060256
    0.13397227]
  [ 0.05017235 -0.12169465  0.01459455 ...  0.00248137  0.04504876
    0.14194812]
  ...
  [ 0.12804402  0.00583001 -0.09855971 ...  0.09552094  0.01382837
    0.00254968]
  [ 0.03181159 -0.14780582  0.01458737 ...  0.08452877 -0.14742474
   -0.09344559]
  [ 0.15467483  0.0888352  -0.17083663 ...  0.10877801  0.06970184
   -0.08504603]]

 [[-0.0841499   0.04706601 -0.15439005 ... -0.08302566  0.05919949
   -0.10795683]
  [-0.0329259  -0.11834659 -0.01394454 ...  0.01933531  0.04302969
   -0.12665315]
  [-0.06391396  0.07601315  0.01125819 ...  0.10374375  0.13041037
    0.0380884 ]
  ...
  [ 0.07288707  0.06868109  0.17568381 ...  0.11314759  0.12224633
    0.13536865]
  [ 0.16876163 -0.02182866  0.10340884 ... -0.08925547  0.06114902
   -0.17669694]
  [ 0.09596536  0.15182261 -0.14879575 ... -0.15834467 -0.0473077
    0.02155734]]]
conv1d_1/bias:0
(64,)
[ 0.00311128 -0.00312501 -0.00280877 -0.00248693 -0.00216164 -0.00264713
 -0.00248461  0.00139411  0.00273298  0.00011535  0.00037446  0.00314235
  0.0017248  -0.00197153  0.00306125  0.00203938 -0.0021701   0.00326282
 -0.00091567  0.00280007  0.00223341  0.00167103 -0.00284975  0.00120387
  0.00151448 -0.00258959 -0.00106961  0.0024473   0.00183061  0.0032034
 -0.00237256 -0.00249424 -0.00160387  0.00205498 -0.00198211 -0.00208147
 -0.0023415   0.00289102 -0.00232914 -0.00336261 -0.00152906 -0.00128462
  0.00296871 -0.00135562 -0.00324615  0.00043073 -0.0017856  -0.00325107
  0.00061103 -0.00043265  0.00346764 -0.0012375  -0.00106378 -0.00113201
  0.00301412  0.00197433 -0.00247379  0.00068277  0.00319214  0.0027827
 -0.00205463 -0.00264177  0.00164266  0.00217557]
conv1d_2/kernel:0
(2, 32, 64)
[[[ 0.08178708 -0.0087029   0.00892234 ... -0.11097006 -0.12804297
    0.14036499]
  [-0.08900365 -0.01504459 -0.08938378 ...  0.06701975  0.12004171
    0.08884623]
  [-0.08990106 -0.17090109 -0.0914121  ... -0.04968145  0.17292115
    0.03581673]
  ...
  [ 0.05399952  0.09632645  0.06031589 ... -0.07309104 -0.16594006
   -0.04088485]
  [ 0.0822226  -0.05405446  0.01558407 ...  0.17631555  0.13984066
   -0.11754725]
  [-0.02614506  0.02880074 -0.14318337 ...  0.16061834 -0.07852489
    0.1597853 ]]

 [[ 0.1353338   0.06881367 -0.09253907 ...  0.03902347 -0.10505806
   -0.09980284]
  [ 0.12345771 -0.12345666  0.15704593 ...  0.07364956 -0.07278877
    0.03598371]
  [-0.13788849  0.13664521 -0.10401034 ... -0.02587678  0.10632742
    0.08652196]
  ...
  [-0.06169009  0.03410197  0.01525669 ...  0.16993119 -0.09584322
   -0.16850786]
  [ 0.12380865  0.09941223 -0.02298722 ...  0.13987222  0.12108576
   -0.07205509]
  [-0.02127355 -0.0360628  -0.1680131  ...  0.11270939  0.02294097
    0.08348742]]]
conv1d_2/bias:0
(64,)
[ 4.36683127e-04 -4.51406522e-05  1.35440248e-04  3.12635093e-05
  4.64229051e-05 -9.93415160e-05  2.63667986e-04  1.04490107e-04
 -1.03076287e-04  3.79436242e-05 -2.48498516e-04  2.11685037e-05
 -2.20073794e-04 -3.99563305e-06 -2.80668719e-05 -1.09767963e-04
  5.71918608e-05 -1.12719601e-04 -4.93788684e-05  6.99263401e-05
  5.15252577e-06 -1.76395726e-04 -1.70800893e-04 -2.16501547e-04
  5.63870090e-05 -9.06413334e-05 -3.45119042e-05 -8.32005753e-05
 -1.27049745e-04  8.78148057e-05  5.26682052e-05 -4.22071462e-05
 -5.52998972e-05 -1.29451189e-04 -8.63553505e-05 -1.07317792e-04
  2.61082663e-04  1.04082836e-04 -2.26395114e-05 -1.42049234e-04
  3.78830591e-04 -2.60337547e-04 -1.43547324e-04  1.51005470e-05
  1.09530491e-04  7.01203971e-05  9.30119131e-05 -2.10594008e-04
 -7.49552419e-05 -1.17951640e-04  1.22762576e-04  1.16731462e-04
  9.20510938e-05 -1.10125045e-04  3.77304859e-05  1.46256134e-04
 -1.52365261e-04  2.03446121e-04  7.49902483e-06  8.40409775e-05
  1.34536458e-04 -9.82370402e-05  1.16972833e-05  3.16332589e-05]
conv1d_4/kernel:0
(1, 64, 32)
[[[ 0.03660619  0.12895067 -0.21987519 ... -0.01726655 -0.23390718
    0.05905876]
  [ 0.0008258  -0.16870597  0.17876321 ... -0.06690793 -0.12304092
    0.01919554]
  [ 0.01300873  0.22822326  0.21443406 ...  0.13034527 -0.24177359
    0.22304776]
  ...
  [-0.06515567  0.13000995 -0.24375845 ...  0.00750531 -0.09894828
    0.22954333]
  [-0.04806779  0.17845498  0.11919931 ... -0.03782499 -0.07557613
   -0.19028452]
  [ 0.21576539  0.19158913 -0.01649578 ...  0.03365988 -0.22748955
   -0.13198875]]]
conv1d_4/bias:0
(32,)
[-3.0480721e-03 -2.9706017e-03 -3.5475825e-03  3.2633117e-03
  3.5132687e-03 -2.1237254e-03 -3.3292547e-03 -2.9114215e-03
 -2.0781474e-03  6.6425337e-04 -8.4641553e-04 -2.9554861e-03
 -1.9695056e-03 -2.9614493e-03 -3.5931615e-03 -2.0187590e-03
 -1.4123821e-03 -2.4317184e-03  3.2123891e-03  3.1044513e-03
  3.3899825e-03 -8.5660955e-05  2.9979968e-03  3.6017857e-03
 -2.8240441e-03  3.3034740e-03  2.9043490e-03  1.2743557e-03
  2.7919051e-03 -6.3808961e-04  8.3453022e-04  2.0662113e-03]
conv1d_5/kernel:0
(2, 32, 64)
[[[-0.00278477 -0.09695049  0.12493739 ...  0.04149004 -0.02138568
    0.00752693]
  [ 0.14069249  0.13083822  0.07329266 ... -0.07779644  0.10070631
   -0.17155395]
  [-0.03514196  0.09065644 -0.1342761  ...  0.09429335  0.1550465
   -0.04632563]
  ...
  [ 0.02392878  0.14455873  0.03292686 ... -0.05870397  0.16739112
    0.04967548]
  [ 0.13785104  0.17428349 -0.16949995 ... -0.10506137  0.05890587
   -0.00694711]
  [ 0.08377637  0.07246854 -0.15504284 ... -0.00339963  0.12165653
   -0.03604942]]

 [[ 0.00166058  0.03402816 -0.15461253 ... -0.09884779  0.10629249
    0.00870025]
  [-0.17539631 -0.06146164  0.07495408 ...  0.01194078 -0.02984101
   -0.04073549]
  [ 0.14397241 -0.09076837 -0.11343898 ...  0.09778231 -0.06764946
   -0.12846188]
  ...
  [-0.14600496  0.09223901 -0.0015297  ... -0.10341105 -0.01761898
   -0.16829368]
  [ 0.04517162  0.16029523  0.01651263 ... -0.04368106  0.14193769
   -0.13419601]
  [ 0.1151748  -0.16678879 -0.10030959 ... -0.04521588 -0.01360448
   -0.08437815]]]
conv1d_5/bias:0
(64,)
[-2.7523579e-03 -1.9768190e-03  2.2637593e-03  2.2093540e-03
  3.1552175e-03  2.3890282e-03 -2.1039115e-03 -1.8892623e-03
  1.3647123e-03 -4.9471506e-04  1.8508052e-03 -7.4579893e-04
  2.8508469e-03  2.6246044e-03 -7.5347052e-05  2.6722483e-03
 -2.5376608e-03 -1.8318311e-03  1.0266833e-04  3.2973271e-03
 -4.3995882e-05  6.1487535e-04 -2.3146840e-03 -1.5491826e-04
  5.6657876e-04  3.0092157e-03 -2.3546065e-03  1.5225540e-03
  1.1048057e-03 -1.8441273e-03 -2.6246095e-03  2.9772820e-03
  2.0688616e-03  2.2026107e-03 -1.3057927e-03  3.0682797e-03
 -5.9511309e-04 -2.8747863e-03  1.7544506e-03  1.5648840e-03
  3.0735601e-03  1.0689710e-04  1.8950880e-03 -8.2319503e-04
  1.6086120e-03  2.0139022e-03 -3.3044249e-03  2.6093144e-03
  4.5241299e-04 -1.7079936e-03 -2.7104639e-03 -2.7824454e-03
  1.0881581e-03  1.1136067e-03  3.1678933e-03 -7.9823402e-04
  1.4144070e-03  3.6283454e-04 -2.4341845e-03 -1.7892702e-03
  2.6151617e-03  1.1608209e-03 -2.1410976e-03  3.0987307e-03]
conv1d_6/kernel:0
(2, 32, 64)
[[[-0.02001929  0.12886006  0.06470843 ... -0.02395307 -0.14543161
    0.0349226 ]
  [ 0.10698567 -0.01549201  0.13910039 ... -0.11929169 -0.13077466
   -0.04649245]
  [ 0.0084507   0.05473423  0.1241472  ...  0.12780276 -0.05356868
   -0.14198108]
  ...
  [-0.09991555 -0.06211704 -0.14435515 ...  0.00789058 -0.12719405
   -0.04120696]
  [ 0.11787684  0.05670844  0.15086396 ... -0.01064395  0.1054804
   -0.11419474]
  [-0.06403325  0.00808096 -0.04756013 ... -0.06972338  0.05039532
    0.08655211]]

 [[ 0.08799114 -0.05839407  0.11527116 ... -0.03687608 -0.07776675
   -0.174827  ]
  [ 0.04566306  0.01615126 -0.10792659 ... -0.03834707  0.17177416
   -0.05492011]
  [ 0.08668947 -0.10482107  0.12826931 ...  0.09786762 -0.136811
   -0.1340111 ]
  ...
  [ 0.16582707  0.04785991  0.04431638 ...  0.07677212  0.12784109
    0.17000741]
  [-0.11400513 -0.0664321   0.12747833 ... -0.09336042 -0.04857326
    0.04076181]
  [-0.08328465  0.00660308 -0.10204224 ... -0.09916814  0.01232486
   -0.14857504]]]
conv1d_6/bias:0
(64,)
[-4.60152805e-05 -8.69119322e-05 -2.14297852e-05  1.34688220e-04
 -3.43622160e-05 -1.27515959e-04  1.50723208e-04  3.46854722e-05
  1.29084860e-04  1.42072662e-04 -1.87735946e-04  1.62450684e-04
  1.80378247e-05 -1.41237470e-04 -2.46357929e-04 -1.76011999e-05
  4.35365888e-04 -1.16244380e-04 -8.23823284e-05 -4.26092774e-05
 -1.74069966e-04 -1.84708173e-04  4.42415803e-05 -8.58748972e-05
 -8.08693148e-05 -1.06441374e-04 -1.72495347e-04  7.30476095e-05
 -5.45436114e-06 -2.19292211e-04  2.04235999e-04 -3.43905529e-04
  1.37657902e-04 -1.43365542e-04  2.98799496e-05 -2.22526054e-04
 -6.27472837e-05 -7.94832013e-05 -1.60397612e-04 -2.01066112e-04
 -2.96374667e-04 -1.13757967e-04  4.67415448e-05 -1.42594072e-04
  3.18322054e-06  4.34354515e-05 -1.34056041e-04 -1.17944866e-04
 -1.00227247e-04  1.13174305e-04 -6.34173994e-05  3.92993315e-05
  5.11048274e-05  1.14933508e-04  4.43565950e-05  2.12817773e-04
  5.33498314e-05  1.63176592e-04 -1.87464015e-04 -2.23626033e-04
 -1.18567332e-04  1.69262101e-04 -7.76592969e-07  2.93620542e-05]
conv1d_8/kernel:0
(1, 64, 32)
[[[ 0.07734686 -0.00993479 -0.01318271 ...  0.08381676  0.03545999
   -0.18572697]
  [-0.16663672 -0.08978768  0.00950941 ... -0.20606562 -0.08801204
   -0.092715  ]
  [ 0.21740621  0.11575102 -0.1682368  ... -0.17354187  0.05151661
   -0.23929481]
  ...
  [-0.22100133  0.15395989 -0.13921708 ...  0.19257917  0.09114594
   -0.03612816]
  [-0.06898498  0.23095706 -0.04054135 ... -0.22552231  0.14707093
    0.06317317]
  [ 0.00744927  0.15781796  0.18390179 ... -0.24023426 -0.18521741
    0.19155668]]]
conv1d_8/bias:0
(32,)
[-3.5013875e-03 -6.3151942e-04 -3.3445545e-03  3.1944702e-03
  3.4131953e-03  8.9484669e-04 -3.2634316e-03 -2.0139860e-03
 -2.3425117e-03  8.1551494e-05  1.5238661e-03 -3.3550628e-03
 -2.2524367e-03 -2.5238227e-03 -3.4500747e-03 -3.0448495e-03
  4.9006916e-04 -2.0835542e-03  2.7747583e-03  1.5588332e-03
  3.4893146e-03 -2.0329962e-03  3.0585825e-03  3.2772243e-03
 -2.9630309e-03  2.6671749e-03  3.4543152e-03  2.7782356e-03
  2.9798704e-03  3.1800775e-04  3.0886768e-03  2.8615166e-03]
conv1d_9/kernel:0
(2, 32, 64)
[[[-0.05927513 -0.04175168 -0.12887506 ... -0.04756469 -0.17604406
   -0.11859344]
  [ 0.00859989 -0.08282401 -0.08304622 ...  0.01445491  0.12399782
    0.12680508]
  [ 0.01120044 -0.13942453  0.15699431 ...  0.1415888  -0.14398547
    0.17247406]
  ...
  [ 0.16966225 -0.0798978  -0.04994823 ... -0.17128879  0.07671517
    0.03351155]
  [ 0.10849266  0.11299601 -0.13162649 ...  0.0733927  -0.15234363
    0.0365318 ]
  [ 0.1329258  -0.03628903  0.07457498 ...  0.1720502  -0.13060059
    0.01128455]]

 [[-0.10629386 -0.02230193 -0.12969637 ... -0.12025115  0.1586675
    0.06111456]
  [-0.14741158  0.0139627  -0.1344425  ...  0.04774686 -0.01621878
    0.0711587 ]
  [-0.05646169  0.09620508  0.17104098 ...  0.1633346   0.14551196
   -0.0211164 ]
  ...
  [-0.17248128  0.07827508  0.08245682 ...  0.17647694 -0.10592434
   -0.13512038]
  [-0.00518439  0.01479453 -0.08102195 ... -0.00844884 -0.12836266
   -0.05919796]
  [ 0.10983939 -0.0482625   0.0794298  ...  0.08241636  0.12186076
    0.09161279]]]
conv1d_9/bias:0
(64,)
[-3.01721913e-04 -2.70845438e-03  7.00284319e-04 -9.71136906e-04
  2.03012582e-03 -1.81789615e-03 -6.33063959e-04  3.02572805e-03
 -1.54629024e-03 -2.05429737e-03  2.64938280e-04 -2.18624948e-03
 -5.47267089e-04 -5.10039332e-04 -2.07718607e-04 -2.73076259e-03
  1.64806750e-03 -2.50757160e-03  2.06846395e-03  2.54706759e-03
  1.43786496e-03  1.65078009e-03 -2.64674169e-03 -1.66892551e-03
 -4.73413747e-05  2.79270299e-03  1.00271846e-03  6.28633366e-04
 -3.46377376e-04  2.82808999e-03 -9.82319470e-04 -2.04729591e-03
  2.93942797e-03  2.08983035e-03  1.24530890e-03  2.92111514e-03
  2.53266469e-03  4.42661869e-04  1.81052391e-03  2.97748228e-03
 -1.40087144e-03 -3.02842585e-03 -2.99451593e-03 -2.04479694e-03
 -1.15658063e-03 -3.09395348e-03  2.77629471e-03  1.14622235e-05
 -2.59932596e-03  2.30272766e-03  2.42904760e-03  7.81617942e-04
  6.01132808e-04  2.52721575e-03  2.52074935e-03  1.28496066e-03
 -6.78605866e-05  1.59659749e-03 -2.26365565e-03 -1.77855114e-03
 -2.49980367e-03  1.46870152e-03  1.88488560e-03  1.20357005e-03]
conv1d_10/kernel:0
(2, 32, 64)
[[[ 0.06647047 -0.16706602  0.12336035 ... -0.1068677   0.14665018
   -0.06089473]
  [ 0.14365914  0.0561381   0.10628368 ... -0.075031    0.11715927
   -0.07547247]
  [ 0.09557443  0.03388349 -0.06149015 ... -0.11873014 -0.06580089
   -0.08424967]
  ...
  [ 0.06406272 -0.08434719  0.06312811 ...  0.03753148 -0.02485118
   -0.1704118 ]
  [-0.06203085 -0.13326329 -0.15363748 ...  0.09549337  0.06607841
   -0.1038355 ]
  [-0.07606086  0.08385622 -0.0883663  ... -0.16123506 -0.15477225
    0.14590017]]

 [[-0.13834274 -0.15731873 -0.00421975 ... -0.055734    0.0215208
   -0.03288967]
  [-0.00208534  0.01653095  0.10300709 ... -0.00495093 -0.00126682
   -0.13344666]
  [-0.05880822  0.04788109 -0.02534023 ... -0.10601143 -0.03537953
   -0.02123104]
  ...
  [ 0.04422166 -0.00269101  0.13370603 ... -0.02524467 -0.09139847
    0.00842093]
  [-0.06795552  0.09472883  0.0953657  ... -0.13762996  0.1342358
   -0.04311574]
  [-0.00546016  0.0479796   0.12554328 ...  0.05082452  0.13547207
    0.12980065]]]
conv1d_10/bias:0
(64,)
[ 1.19150063e-04  1.27459934e-04  1.03583996e-04 -2.55433086e-04
  1.66831465e-04 -2.93833262e-04 -6.51190494e-05  1.14919399e-04
  3.38621721e-05  9.50559042e-05 -7.45408470e-05  8.97395294e-05
  1.41513869e-04  2.23094059e-04 -1.15088376e-04  4.28191524e-05
 -3.69640220e-05  2.13979656e-04  4.15147151e-05 -5.14791718e-05
  1.74694025e-04 -2.07454868e-04 -2.18668079e-04  8.66822302e-05
  1.29443259e-04  1.28277679e-04  7.84206641e-05  1.04092993e-04
  2.76149058e-06 -1.43300285e-05  1.48540275e-04  1.01147918e-04
  1.76581249e-04 -2.72293109e-04 -1.01699443e-05 -1.21330828e-07
 -2.67111842e-04 -1.38895673e-04  5.30244324e-06 -4.25517246e-05
 -1.91735598e-04 -6.67772983e-05  7.01192039e-05 -1.89025770e-04
  9.07277627e-06  1.25133505e-04  1.60874406e-04 -1.50770677e-04
 -7.49086848e-06 -2.09546517e-04 -1.73736829e-04  1.25649647e-04
 -2.36576685e-04  2.25676573e-04  2.13649706e-04  5.57045205e-05
  1.73143726e-05  9.15975761e-05 -5.60300759e-05  2.00208378e-05
  5.01806499e-05  2.89222862e-05  1.08957487e-04 -6.90373854e-05]
conv1d_12/kernel:0
(1, 64, 32)
[[[ 0.08581095 -0.13219903  0.2393934  ...  0.01610929 -0.14008427
    0.15259056]
  [ 0.04419539  0.10150349 -0.1403526  ...  0.01652715 -0.02399055
   -0.15645002]
  [ 0.13829431 -0.16678776 -0.21397826 ... -0.03199499 -0.11409447
   -0.22547354]
  ...
  [-0.05910775 -0.2100138   0.14996162 ...  0.1302357   0.1862972
    0.14429207]
  [-0.21638337  0.01317967 -0.02501293 ... -0.24791741  0.02908564
   -0.20101824]
  [ 0.16264383 -0.18550085 -0.12729377 ... -0.16512263 -0.08188355
   -0.24824005]]]
conv1d_12/bias:0
(32,)
[-0.00332005 -0.00103815 -0.00324239  0.00317143  0.00347866  0.00325073
 -0.00297937 -0.00247938 -0.0019177   0.00199048  0.00219258 -0.00331914
 -0.00287624  0.00246447 -0.00313675 -0.00339903  0.00166886 -0.00041234
  0.00292651  0.00137832  0.00348705 -0.00198685  0.00290211  0.00330024
 -0.00311585  0.0015144   0.00303779  0.00256053  0.00310073  0.00132072
  0.00334271  0.00020972]
conv1d_13/kernel:0
(2, 32, 64)
[[[-0.01967396  0.16245762  0.10062286 ...  0.12864955  0.01556519
    0.1749587 ]
  [ 0.1304976  -0.09142075  0.14802703 ... -0.00243372  0.01715948
   -0.04361596]
  [ 0.17232485 -0.1030625   0.11648159 ... -0.16263029  0.10134714
    0.10916875]
  ...
  [-0.02384074  0.1284994   0.03973396 ... -0.06449981 -0.1663425
    0.07275796]
  [-0.1621043   0.08611637 -0.17625572 ... -0.17361888 -0.05342515
    0.14623757]
  [-0.11933032 -0.00081338  0.16016614 ...  0.01172751  0.11854183
    0.14987366]]

 [[ 0.14985378  0.16930372 -0.17079638 ...  0.17598377  0.08870085
    0.03662311]
  [-0.15627368  0.00632425  0.01869154 ... -0.05266488 -0.11934968
   -0.06707452]
  [ 0.1635475  -0.0912069  -0.11812545 ... -0.00488672  0.02041057
   -0.01665706]
  ...
  [ 0.02826837 -0.12517937  0.02665929 ...  0.00195827 -0.08906215
    0.04855077]
  [-0.14757097  0.05892501 -0.16850704 ...  0.06232618  0.01997339
   -0.11743791]
  [ 0.16057573 -0.03782981 -0.02263618 ... -0.08597286  0.09481489
    0.17061068]]]
conv1d_13/bias:0
(64,)
[ 2.1205242e-03  2.0008881e-03  1.5913732e-03 -4.0643159e-04
  2.7679494e-03  2.6142802e-03 -1.0137892e-03  2.1036253e-03
  2.8543361e-03 -1.3095607e-03  2.2668042e-03 -1.8414797e-03
 -5.7404558e-04 -2.1048952e-03  2.0873931e-03 -2.6751221e-03
 -3.8657122e-04 -2.3302429e-03  2.4154142e-06 -2.8763674e-03
  1.9542240e-03 -1.3361771e-03 -2.7770903e-03  2.5683194e-03
 -3.1858354e-03  3.9820341e-04  2.9442641e-03  1.3980545e-03
  1.3786397e-03 -2.6820484e-04 -2.1808259e-03 -2.3191366e-03
 -2.3922524e-03  1.9916063e-03 -4.6818989e-04 -2.7831858e-03
 -2.6396688e-03  2.4736733e-03  7.0591376e-04  1.9127934e-03
 -5.5473356e-07 -1.3971316e-04 -2.1729136e-03  2.8195784e-03
  2.3292643e-03  1.1443754e-03 -2.9626512e-03  3.0690357e-03
  9.6906652e-04  1.7108445e-03 -1.2471169e-03  3.2770643e-03
 -2.7684364e-03 -2.6902179e-03 -1.3239705e-03  2.7817632e-03
  2.0218783e-03 -8.1150443e-04  2.5375416e-03 -2.2886479e-03
 -2.7548678e-03 -2.5721549e-03 -1.9482138e-03  7.1593374e-04]
conv1d_14/kernel:0
(2, 32, 64)
[[[-1.17871359e-01 -9.17143151e-02 -1.88563287e-03 ...  1.11217804e-01
    7.54094543e-03 -7.52000660e-02]
  [-5.91593534e-02 -8.00220370e-02  7.22039640e-02 ...  8.48023072e-02
   -1.61289647e-01 -1.43703163e-01]
  [ 3.36829759e-02  2.27995254e-02  8.63337740e-02 ...  8.45508575e-02
    1.58445925e-01  1.45402372e-01]
  ...
  [-6.99773431e-03  1.09876886e-01 -1.48173779e-01 ... -1.30563274e-01
    1.36196434e-01  9.07897949e-02]
  [ 1.86019801e-02  1.19371958e-01  1.43868579e-02 ...  4.80477810e-02
   -9.70075801e-02 -5.31607047e-02]
  [-5.07813245e-02 -9.50139984e-02 -5.87858073e-02 ...  4.27129306e-02
   -1.10159470e-02 -7.55482465e-02]]

 [[ 1.65673018e-01  1.59734040e-01  1.16775654e-01 ... -1.61172837e-01
   -1.62576795e-01  6.57357946e-02]
  [ 1.07078835e-01  2.89592299e-05  1.37103572e-01 ... -1.72517896e-01
   -9.97197777e-02  1.03234604e-01]
  [ 8.17327499e-02  1.28617600e-01  1.37766466e-01 ... -2.16725934e-02
    1.29205465e-01  1.76442191e-01]
  ...
  [-1.14987090e-01  1.64212578e-03 -7.18915761e-02 ...  3.93445157e-02
   -5.59022203e-02 -3.80253084e-02]
  [ 1.24635950e-01 -7.85795972e-02 -7.07373843e-02 ...  1.02778571e-02
   -6.65327243e-04  1.29545569e-01]
  [-8.60392675e-02 -8.65662396e-02 -1.38943374e-01 ... -8.59314501e-02
   -1.26693562e-01  1.55714946e-02]]]
conv1d_14/bias:0
(64,)
[ 1.13324772e-04 -1.14287293e-04 -6.19054390e-06  8.31259058e-06
 -1.16196250e-04  1.52134016e-04  5.64398943e-06 -1.82588585e-04
  9.09098671e-05 -9.97730531e-05 -1.83161726e-04 -4.83558651e-05
  2.08534082e-04 -9.24695196e-05 -1.33756912e-04  4.42603632e-05
 -1.08842411e-04 -1.04100931e-04  3.64240768e-05 -9.32898256e-05
 -9.56973145e-06 -1.69427985e-05  1.06244697e-05  2.96120706e-04
 -6.80760641e-05 -2.21085102e-05  1.47061757e-04 -4.07409789e-05
 -2.06223645e-04 -3.59665064e-05 -7.29019303e-05  1.54964015e-04
  3.43204192e-05  6.65899424e-05  6.40177386e-05  1.68891725e-04
 -1.10336521e-04  9.99522745e-05 -1.19342978e-04  7.97182729e-05
 -2.60251727e-05 -7.57139424e-05 -5.55427832e-05 -1.55087269e-04
  1.31658802e-04 -9.51490219e-05  7.90615377e-05  2.57851614e-04
 -1.13564085e-04  1.10868146e-04 -2.16833461e-04 -4.11170950e-05
 -2.43992436e-05  1.31825276e-04  2.35388161e-05 -5.03466890e-06
  6.57028140e-05 -2.12994753e-04 -1.36827584e-04 -1.16970994e-04
  9.01708336e-06 -2.10380749e-05 -1.00887264e-04  2.03455165e-05]
conv1d_16/kernel:0
(1, 64, 32)
[[[-0.10947877 -0.1891504  -0.07087532 ...  0.22957249 -0.1557637
   -0.03354975]
  [-0.2247917   0.04866555 -0.17819108 ... -0.17841518  0.11713118
    0.0468275 ]
  [ 0.1756678  -0.1083233   0.03126713 ...  0.05087302  0.24851519
   -0.1511145 ]
  ...
  [-0.11123373 -0.16989577  0.20514333 ... -0.03261828  0.06628044
   -0.24300529]
  [ 0.1930909  -0.14228739 -0.1258427  ...  0.00530464 -0.20134005
    0.08136239]
  [ 0.09177718 -0.14704992 -0.24280342 ... -0.04581321 -0.23953648
   -0.19136006]]]
conv1d_16/bias:0
(32,)
[-0.00312102 -0.00301594 -0.00287343  0.00329673  0.00330432  0.00326943
 -0.00293729 -0.00310968  0.00137808 -0.00037958  0.00225672 -0.00260186
 -0.00296023  0.00138617 -0.00315733 -0.00332703  0.00070126 -0.00038072
  0.00217616  0.00052511  0.00351084 -0.00151967  0.00214578  0.00287193
 -0.0028205   0.00301922  0.00197965  0.00270126  0.00272001  0.00169505
  0.00350171  0.00189047]
conv1d_17/kernel:0
(2, 32, 64)
[[[ 0.05988927  0.01138129  0.02333789 ... -0.08876891  0.1714752
    0.0904968 ]
  [-0.16907202 -0.04782696 -0.06851743 ... -0.13834347  0.07643581
   -0.15978314]
  [-0.14273882  0.01991384 -0.11880689 ... -0.00451543 -0.14266816
   -0.05884285]
  ...
  [ 0.15242709 -0.05041143 -0.16315097 ...  0.10754211  0.16476393
    0.11354477]
  [ 0.02507525 -0.07554407  0.08719327 ...  0.11540387  0.02786547
   -0.11306351]
  [ 0.0494603   0.09569786  0.03296346 ... -0.1485757  -0.1347627
   -0.03965859]]

 [[ 0.03358377  0.15850154 -0.09478612 ...  0.01411207  0.15068644
    0.11397418]
  [-0.16629173 -0.08305883  0.01473794 ... -0.16108091 -0.07860187
   -0.12454934]
  [-0.11851685  0.04505714 -0.07188742 ...  0.05775627 -0.11363602
   -0.05707193]
  ...
  [-0.05375087  0.11699706  0.03841634 ... -0.0800406   0.1384512
   -0.12197242]
  [ 0.10977232 -0.16432318  0.10427685 ...  0.06095002  0.05085076
   -0.11865408]
  [ 0.08299629 -0.01465958 -0.0245913  ... -0.0278473   0.08951501
    0.09724836]]]
conv1d_17/bias:0
(64,)
[ 2.5860525e-03  3.2027726e-04 -5.6444237e-04 -2.2428615e-03
  7.2863209e-04  1.9299991e-03  1.4447407e-03  2.2451747e-03
 -1.7223278e-03 -1.2639378e-03 -1.4353562e-03  2.3968471e-03
  1.9186703e-03  3.2854541e-03  2.2358058e-03 -2.3227010e-03
 -1.5199361e-03 -2.6425854e-03 -2.2524006e-03  1.6309714e-03
  2.8200482e-03 -1.8601260e-03  3.0106355e-03  2.9214551e-03
  2.7975169e-04  2.4442151e-03 -2.8877577e-03 -2.0025610e-03
  1.3689315e-03 -1.3099031e-03 -2.8409348e-03  2.0412316e-03
 -7.6953706e-04 -9.4091491e-05  3.4429682e-03 -6.6789117e-04
  2.3003868e-03 -1.9908297e-05 -1.7369022e-03 -2.6900745e-03
  2.5734077e-03  2.1642609e-03 -2.8193898e-03  2.1339324e-03
 -2.5911664e-03 -7.8676018e-04  1.7418884e-03  3.0612098e-03
 -1.7977009e-03  1.7701536e-03  2.9224306e-03 -9.6953259e-04
 -9.2979905e-04 -9.0588938e-04 -2.7821520e-03 -2.3534643e-03
  2.5963786e-03  8.0800208e-04 -1.7832089e-03 -1.3240863e-03
 -1.3025913e-03  2.6269155e-04  2.2698059e-03 -1.7722566e-03]
conv1d_18/kernel:0
(2, 32, 64)
[[[ 0.05109281  0.06023542  0.12031662 ...  0.14248016 -0.13300742
   -0.05265943]
  [ 0.01521643 -0.15075839  0.05580834 ... -0.16786318 -0.16464595
    0.07309987]
  [-0.14121225  0.05087377  0.16985603 ...  0.01365742  0.16545916
    0.14214616]
  ...
  [ 0.11127829 -0.04855158  0.1398809  ...  0.11098527  0.03755573
   -0.14422284]
  [ 0.01631196  0.15600778  0.11587276 ...  0.08468351 -0.14650561
   -0.14364137]
  [ 0.08546971 -0.1565873  -0.02852796 ...  0.10642616  0.04363929
    0.13219531]]

 [[ 0.09313577 -0.00596829 -0.12099409 ...  0.09315161  0.16024508
   -0.0139069 ]
  [-0.04642524  0.01637724 -0.04740242 ...  0.10803305 -0.0664636
    0.14240035]
  [-0.14793424  0.14906822  0.04774031 ... -0.15308647  0.12639424
   -0.12305064]
  ...
  [-0.03736375 -0.16451648 -0.07859524 ...  0.05436528  0.15797652
    0.04110618]
  [-0.05855747  0.07804599 -0.10716895 ...  0.04735491 -0.04690675
    0.03792194]
  [-0.0955203   0.01396385  0.12644723 ... -0.14722374  0.1329492
    0.12296279]]]
conv1d_18/bias:0
(64,)
[-9.9878991e-05 -8.3793733e-05 -2.3225739e-05  1.4574091e-04
 -2.1373417e-04  8.7653556e-05 -2.3370596e-04  1.6241452e-04
  1.8733797e-04  1.0931591e-04 -1.3558463e-04  4.6067024e-05
 -3.4894128e-05 -1.5381663e-04  2.4350802e-04  8.4888568e-05
  9.1532340e-05  1.2252902e-04 -3.9728248e-04 -1.1740836e-04
 -2.5679588e-05 -1.3283032e-04 -6.4642198e-05 -1.6102937e-04
  9.8758195e-05 -8.2388528e-05 -8.9107387e-05 -4.1226554e-06
  9.4899997e-06  3.4378394e-05  1.0152800e-04  1.6888190e-04
 -3.1546650e-05 -1.6035073e-04  1.6578019e-04 -8.9806148e-05
 -2.8242811e-04 -7.5250238e-05  2.8552509e-05  9.1787690e-05
  1.8011722e-05  2.0751717e-04 -1.3348789e-04 -1.6307803e-04
  1.0777471e-05 -8.6756547e-05  4.9145012e-05  9.3137722e-05
 -8.7795699e-05 -2.4560338e-04  1.4918547e-05 -4.4102246e-05
  4.6097539e-05 -1.7077534e-04 -8.3876017e-05 -2.1717020e-05
  1.5254246e-04  8.3421000e-05  2.0269239e-05 -9.6737029e-05
 -2.1337564e-04 -1.7078918e-04  4.8708273e-05 -4.6467569e-05]
conv1d_20/kernel:0
(1, 64, 32)
[[[-0.21481572 -0.0295986  -0.02853276 ...  0.22722068  0.12354887
   -0.02393036]
  [ 0.06039836  0.01465245 -0.20516686 ...  0.22172579  0.18224967
   -0.21896157]
  [-0.0760854  -0.15866005  0.16316076 ... -0.1503709  -0.06468111
    0.04656688]
  ...
  [-0.08874335  0.10767183 -0.04539736 ...  0.1940475  -0.11776542
   -0.05074281]
  [-0.05000547 -0.03847008  0.12003814 ... -0.19751808  0.0142704
    0.08692893]
  [ 0.10788935  0.04390311 -0.07414395 ...  0.1277553  -0.01104216
   -0.2469025 ]]]
conv1d_20/bias:0
(32,)
[-0.00207591 -0.00295982 -0.00226109  0.00314872  0.0034615   0.00320553
 -0.00327494 -0.00106811  0.0027859   0.00259146  0.00332158 -0.00178792
 -0.00315478  0.00238962 -0.00315437 -0.00322207  0.00227202 -0.0030349
 -0.00234841  0.00029758  0.00330279  0.00062411 -0.00014839  0.00262755
  0.0009654   0.00287966 -0.00228914  0.00219248  0.00260905  0.002418
  0.00281737  0.00077486]
conv1d_21/kernel:0
(2, 32, 64)
[[[-0.09060865 -0.17148818 -0.01192143 ...  0.10259633  0.04007562
   -0.11413845]
  [ 0.04839038 -0.03678801  0.11595737 ... -0.00979806  0.12839596
   -0.16783586]
  [ 0.05326288 -0.12595913  0.01489088 ...  0.13136087 -0.17278217
    0.17483757]
  ...
  [-0.14319329 -0.16767456  0.12875797 ... -0.106085   -0.11868523
    0.13309973]
  [-0.11033867  0.1355986   0.04522499 ... -0.17262675 -0.16389118
   -0.01145506]
  [ 0.17113297  0.03095747  0.10961672 ... -0.13489784 -0.12106977
   -0.08770655]]

 [[-0.13552563  0.03468325 -0.12786902 ...  0.05697994 -0.03705003
    0.02764471]
  [ 0.11032536  0.06452503 -0.13332763 ...  0.10188586 -0.06359276
   -0.09866755]
  [ 0.00544818 -0.0119665  -0.01131317 ... -0.17634808  0.02045761
   -0.13640642]
  ...
  [ 0.09916537 -0.01202066  0.03987756 ...  0.00293303  0.10291923
   -0.09061556]
  [ 0.01515624  0.06025865  0.17296448 ... -0.01882865  0.03695295
    0.08786377]
  [-0.10065617  0.16259302  0.08036512 ... -0.05094277 -0.00373474
   -0.04788216]]]
conv1d_21/bias:0
(64,)
[-1.0963781e-03  1.8096869e-03 -2.0621649e-03  1.5159543e-03
  3.6246088e-04  1.3826819e-03  2.3450027e-04 -1.9724662e-03
  1.1476572e-03  1.7879654e-03  8.8214249e-05  2.9489091e-03
 -1.7327827e-03 -2.6169352e-03 -5.1684387e-05  6.0193631e-04
 -2.3796749e-03 -1.1157345e-03  6.1069371e-04  2.6265271e-03
  4.4984522e-04 -2.0226590e-04  1.3738454e-03  2.7982346e-03
  7.2765315e-04  1.2436636e-03  1.6364364e-03  7.2983571e-04
 -1.4297883e-03 -9.5592119e-04 -5.9421244e-04 -2.5232050e-03
 -1.2467355e-03  2.2586286e-03 -1.5482439e-03  7.4219541e-04
 -3.1556361e-04  2.5784103e-03 -1.5788830e-03 -1.5594615e-03
 -3.2221670e-03 -1.8797625e-03  2.4565591e-03  2.2277550e-03
  2.3966064e-03 -2.3329209e-03  1.9132169e-03  1.9253405e-03
 -1.2825553e-03  1.2890361e-03  4.6236443e-04 -2.9768168e-03
  2.5217086e-03  1.0578211e-03  1.9262712e-03  2.0263088e-03
 -2.1605538e-03 -6.3243648e-04 -3.0037342e-03 -2.6862621e-03
  1.3664296e-03 -1.5534962e-03  7.9518644e-04  1.8759912e-03]
conv1d_22/kernel:0
(2, 32, 64)
[[[-0.14405523  0.14933857  0.05464719 ...  0.1498274  -0.10997105
   -0.02003273]
  [-0.09300788  0.09385467  0.10395407 ...  0.00571633  0.1095982
    0.09504022]
  [-0.13125047  0.10232286  0.14184096 ... -0.04122932  0.09521049
    0.16462162]
  ...
  [ 0.01828701 -0.11341055 -0.03736197 ... -0.05668414 -0.07721014
   -0.15310019]
  [-0.02631707 -0.16283412 -0.15094292 ... -0.09960431  0.03212066
    0.09039064]
  [-0.1585137   0.15925828  0.11325246 ...  0.10638759  0.06314462
   -0.07229757]]

 [[ 0.14525123 -0.04276195 -0.07709819 ...  0.15870678 -0.02842767
    0.08502044]
  [-0.08705143  0.12627196 -0.0221768  ...  0.14545217 -0.02374289
   -0.1456435 ]
  [ 0.14670713  0.16931924 -0.1355494  ...  0.05427534  0.12143096
   -0.02296703]
  ...
  [-0.04850561  0.09031068 -0.04163074 ...  0.10317601  0.02666164
   -0.04423208]
  [-0.16534531 -0.15435424 -0.15547852 ...  0.05332803  0.1397469
   -0.14093208]
  [-0.02289953  0.15481067  0.16113128 ...  0.00723005 -0.03447871
    0.00620358]]]
conv1d_22/bias:0
(64,)
[ 1.03079132e-04 -1.08880900e-04 -1.48525942e-04 -1.79267401e-04
 -1.02442093e-04 -5.51395206e-05 -3.18219136e-05  6.80951125e-05
  5.43365531e-05  1.20294990e-05 -1.54555615e-04  2.02140131e-04
 -1.74880188e-04 -1.98914582e-04 -8.07661345e-05 -2.23942407e-05
  1.85734883e-04  7.35169306e-05 -8.75712722e-05 -3.15957295e-05
  6.67320419e-05 -6.47289271e-05  1.81786054e-05  7.03553960e-05
 -5.17003573e-05 -5.31862388e-05 -1.14253729e-04 -1.63355056e-04
 -1.90013816e-04 -7.68257814e-05  4.42551718e-05  4.92421932e-05
  1.23461155e-04  7.34806381e-05 -1.50980151e-04  4.15905524e-05
  1.62857086e-05  1.30744826e-04  6.18888735e-05 -4.77295471e-05
  2.02083669e-04  5.34745777e-05 -1.04632541e-04 -1.17995252e-04
  3.98638222e-05 -1.06918786e-04  2.88052270e-05 -2.59231529e-05
 -6.69325382e-05  1.20627315e-04 -8.48477357e-05  9.58085730e-05
 -2.35543394e-05  1.13011738e-04  6.36929326e-05 -2.71877907e-05
 -1.02697022e-05  6.04450179e-05  2.13631574e-05  1.21880301e-04
 -8.60921864e-05  8.46688708e-05  1.61919525e-05  7.26283179e-05]
conv1d_24/kernel:0
(1, 64, 32)
[[[ 0.18045564 -0.00746676 -0.07331797 ...  0.00585046  0.16591758
    0.15880595]
  [-0.08285245 -0.21025816  0.2122262  ...  0.22390755 -0.06749807
   -0.21945328]
  [-0.2474551  -0.17575507  0.1811066  ... -0.13039136 -0.05292454
    0.13951968]
  ...
  [-0.23062097  0.17778632  0.06211752 ... -0.10061372 -0.11050487
   -0.17339806]
  [ 0.05837399 -0.20219858 -0.11736057 ...  0.23903964  0.21727328
    0.24275856]
  [ 0.17079015 -0.17460307 -0.0269587  ...  0.12911011  0.19195595
   -0.1979617 ]]]
conv1d_24/bias:0
(32,)
[-0.00029905 -0.0032446  -0.00291981  0.00305778  0.00329664  0.00291015
 -0.00314943 -0.00105764  0.00316912  0.00241075  0.00313881 -0.00068745
 -0.00299577 -0.00173717 -0.00277832 -0.00260504  0.0004811  -0.00296758
 -0.00234817 -0.00213834  0.00289207 -0.00166513 -0.00115169  0.00287344
  0.00244884  0.00302969  0.00187621  0.00159713  0.00268615  0.00249844
  0.00307585  0.00181361]
conv1d_25/kernel:0
(2, 32, 64)
[[[ 0.07494386  0.05614325 -0.13378294 ... -0.16552964  0.03824444
   -0.1696704 ]
  [-0.15739325 -0.03755885  0.11800771 ... -0.15189901 -0.10930099
    0.15471561]
  [-0.16983116  0.00820183  0.00864292 ...  0.1111518  -0.09740562
    0.03038852]
  ...
  [-0.15151249 -0.05036517 -0.14376181 ...  0.15591955  0.00703075
    0.00923798]
  [ 0.1634722  -0.05007575 -0.00511435 ...  0.06574044  0.06120486
    0.03619167]
  [ 0.04899324  0.1680736   0.13303328 ...  0.03458413 -0.06166153
   -0.1403108 ]]

 [[ 0.09150039 -0.02166371  0.10402418 ...  0.11790299  0.04021735
    0.09262199]
  [-0.07056261 -0.04657477  0.16550998 ...  0.13074759 -0.11553624
   -0.10151669]
  [-0.13521089  0.08574824 -0.11266959 ... -0.09508752  0.13229465
    0.03759184]
  ...
  [-0.12648217  0.13994312 -0.0283896  ...  0.06291731 -0.0139391
   -0.06448253]
  [ 0.08686885 -0.00875449  0.0310289  ... -0.06215336 -0.08520945
   -0.09345389]
  [-0.1352697   0.03153468  0.04661991 ... -0.00133726  0.11916124
    0.1529055 ]]]
conv1d_25/bias:0
(64,)
[ 1.2471708e-03  2.5541318e-04  3.1023354e-03 -2.2206812e-03
  2.1013706e-03 -1.3536931e-04 -2.6025779e-03 -2.0669054e-03
 -1.3960089e-05 -2.2740951e-03 -1.4372165e-03 -1.4411297e-03
  2.6320165e-03  2.4939640e-03  1.8940292e-03 -2.5451151e-03
 -1.4500932e-03 -5.8996887e-04 -1.7409769e-03  2.2647162e-03
  2.1711597e-03  1.7912495e-03 -8.6925854e-04 -3.0280431e-03
  2.3933796e-03 -2.8058642e-03 -2.0687873e-03  1.2499790e-03
 -2.0012874e-03  8.8947127e-07 -2.6795836e-03  2.7328539e-03
 -2.4786450e-03 -1.6996940e-03 -1.5579775e-03  2.5505410e-03
  2.5899261e-03  1.6000571e-03 -2.7995640e-03 -2.8747916e-03
  2.6234286e-03 -1.2053251e-03 -2.3689519e-03 -2.1085246e-03
  2.2490215e-03  2.6628990e-03 -4.4639059e-04  5.7802023e-04
 -1.3947189e-04  2.2905946e-03 -3.0925414e-03 -5.6222494e-04
  2.0528543e-03 -2.9999807e-03 -2.9298328e-03  2.9363739e-03
  3.8011567e-04  6.8416022e-04 -1.9946354e-03  1.4507067e-03
 -1.9104939e-03 -2.3046553e-03  2.3716320e-03  1.8487141e-03]
conv1d_26/kernel:0
(2, 32, 64)
[[[-0.16852258 -0.04668493 -0.13755338 ... -0.15908955  0.10140336
    0.14994243]
  [ 0.05010547  0.16368134  0.11626786 ...  0.0623264   0.17507444
    0.022355  ]
  [-0.15104933  0.14972536  0.12759769 ...  0.12388729 -0.06789371
    0.16705179]
  ...
  [-0.02981761  0.16500317  0.13357967 ...  0.05313252 -0.00128221
   -0.05564293]
  [ 0.00689776  0.16769263  0.02324264 ... -0.11930238  0.03913861
   -0.14195788]
  [-0.16642071 -0.09060682 -0.04662162 ... -0.05370039 -0.00702921
   -0.06336615]]

 [[-0.07621326 -0.17059414 -0.07155207 ... -0.14697762 -0.05531159
    0.0024304 ]
  [ 0.03110336  0.0475775   0.02756625 ...  0.09645031 -0.16090812
    0.0266189 ]
  [ 0.04372319 -0.07472157  0.14406668 ...  0.03041837  0.0381082
    0.11794396]
  ...
  [-0.03684641 -0.03575543 -0.01218877 ... -0.07764179  0.09419159
    0.01150052]
  [-0.01633495  0.02405969  0.0424502  ... -0.00412498  0.11874096
    0.14074424]
  [-0.121636   -0.09474005 -0.07312268 ...  0.17262161  0.16189152
    0.06111399]]]
conv1d_26/bias:0
(64,)
[-3.8965547e-05  6.3450066e-06  1.9979398e-05 -1.1012678e-04
 -3.2775690e-05 -1.4414397e-04  1.2681315e-04  3.7214166e-05
 -2.1533266e-05 -1.8928126e-04  4.3492466e-05 -7.0731352e-05
 -1.4079275e-04  6.5231463e-05  6.3693027e-05 -5.8763642e-05
 -7.1705523e-05 -5.6312860e-05  6.4733395e-05 -5.7428537e-05
 -2.9270346e-05  1.0139884e-04  3.7891234e-06  3.2951680e-04
 -4.1620227e-05 -5.6888279e-05  7.5343356e-05 -4.0463228e-06
  8.1522128e-05 -8.6747837e-05 -1.6273098e-04 -9.8795725e-05
 -5.1552874e-05  1.1615108e-04 -7.1083683e-05 -2.2900866e-05
 -8.2296458e-05  1.0276929e-04  1.2895082e-04  8.9189838e-05
 -6.8821013e-05 -2.1937740e-06 -1.4375252e-04 -3.4165838e-05
 -4.0443279e-05  3.5729827e-05 -1.1887330e-04  1.3662482e-04
 -1.2787874e-04 -9.2647570e-05 -6.6657572e-05 -4.8714312e-05
 -2.0102914e-04  1.9158080e-04 -4.1505511e-05  9.6330899e-05
  2.6510214e-04 -8.0692349e-05 -5.2058636e-05 -9.5889285e-05
  3.6428151e-05 -1.0317976e-04  1.4652299e-04  1.4087348e-05]
conv1d_28/kernel:0
(1, 64, 32)
[[[ 0.21563211  0.04231413 -0.07836568 ...  0.22300045  0.15492736
    0.09872273]
  [-0.00444146 -0.22682588 -0.0706301  ... -0.15599869  0.23704378
    0.19115128]
  [-0.17080984 -0.17847502 -0.04527637 ... -0.14418337  0.12920432
    0.18304408]
  ...
  [-0.22289033  0.01315651  0.15944788 ...  0.23694581 -0.19867484
    0.22705597]
  [ 0.16131149  0.10774295  0.16381834 ... -0.24588044  0.24729733
   -0.2085785 ]
  [-0.01914272 -0.10370199  0.11743709 ... -0.23918563 -0.21229939
   -0.22242402]]]
conv1d_28/bias:0
(32,)
[ 0.00052278 -0.00292771 -0.0025613   0.00303001  0.0031347   0.00207474
 -0.0020266  -0.00305296  0.00306496 -0.00225247  0.00268401  0.00237542
 -0.00305376 -0.0027667  -0.00309868 -0.00288305 -0.00291635 -0.00294153
 -0.00181074 -0.00229533  0.00257899 -0.00123664 -0.00242101  0.00100858
  0.00112708  0.00328308  0.00230014  0.00280969  0.00238338  0.00184891
  0.00273461 -0.002775  ]
conv1d_29/kernel:0
(2, 32, 64)
[[[-0.17592914  0.02945221  0.16861631 ... -0.00805073 -0.148513
   -0.14193113]
  [ 0.00159889 -0.06320535  0.11083316 ...  0.17427716  0.0188356
    0.00492009]
  [-0.07972671  0.11216193 -0.08519538 ... -0.07453042  0.14926603
   -0.12974007]
  ...
  [-0.11700682  0.12777212  0.14582027 ... -0.05431989 -0.13855521
    0.05637117]
  [ 0.02037643 -0.11215906  0.02873001 ... -0.13596973 -0.15072261
   -0.14135215]
  [ 0.00512087 -0.10884263  0.17330705 ...  0.15143748 -0.16349073
    0.05896269]]

 [[ 0.05529626  0.02053932 -0.06048603 ...  0.06873734  0.04251615
   -0.07700024]
  [ 0.09395433 -0.07427698  0.06554624 ...  0.01851905 -0.143952
   -0.11707269]
  [-0.10601338  0.0483213  -0.15536584 ...  0.11610515  0.07401122
    0.10534235]
  ...
  [ 0.03597346  0.14013356 -0.16223288 ... -0.00441808 -0.05754316
    0.05028888]
  [-0.10901262 -0.10767991  0.06406793 ... -0.00431591 -0.14022024
   -0.17074591]
  [ 0.13954398 -0.15218809 -0.14655218 ... -0.01334563  0.14135481
    0.06493127]]]
conv1d_29/bias:0
(64,)
[-0.00261091  0.00070411  0.00258024  0.00111104  0.00267529  0.00249778
  0.00099928  0.00088298 -0.00030495 -0.00013982 -0.00175845 -0.00141112
  0.00260119  0.00208307 -0.00101374  0.00095205 -0.00040085 -0.00253405
 -0.00186962  0.00259052  0.0006679   0.0020384   0.00164104 -0.00094142
 -0.00243194  0.00269084  0.00225079  0.00287485  0.00253638  0.00181269
  0.00158454  0.00259019  0.00261423  0.00071925  0.00171316 -0.00222039
 -0.00022743  0.0026131   0.000212   -0.00019119  0.00057631  0.00144906
  0.00200641  0.00285488  0.00134059  0.00066894  0.00110981 -0.00102675
  0.0014369   0.00209851  0.00192348 -0.00062373  0.00310635 -0.00084791
  0.00185835  0.00240337 -0.00121258 -0.00204704  0.00031938 -0.00150051
 -0.00133368 -0.00195459  0.00229581 -0.00270231]
conv1d_30/kernel:0
(2, 32, 64)
[[[ 0.1164231   0.01689859 -0.007659   ... -0.07770957 -0.01776688
    0.06228279]
  [ 0.06256177 -0.06850847 -0.08948567 ... -0.01160143  0.07174291
    0.11684243]
  [ 0.06255724 -0.01473587 -0.03977178 ...  0.03182856  0.14942886
    0.05353177]
  ...
  [ 0.05015199 -0.01224225 -0.16831157 ... -0.13282661 -0.07004613
    0.13455215]
  [-0.05647537 -0.13293383  0.07286079 ...  0.11737671  0.07810304
    0.02355832]
  [ 0.10803926 -0.16167338  0.01809981 ...  0.12091319 -0.08529703
   -0.14999865]]

 [[-0.15684912 -0.0954483   0.07937358 ... -0.00354209 -0.16402262
    0.05482691]
  [-0.00598294  0.01956445 -0.11520079 ... -0.10362837 -0.13360506
    0.10133138]
  [ 0.14375855  0.13768911  0.00154116 ... -0.10067143  0.01819696
   -0.12657829]
  ...
  [-0.02303391 -0.0800271   0.175356   ...  0.09186748  0.16735615
    0.13105798]
  [ 0.1195741   0.09965651 -0.16089594 ...  0.10520529 -0.0148529
   -0.16676545]
  [ 0.01197586 -0.0511799   0.06839664 ...  0.02591005  0.01524049
   -0.00409764]]]
conv1d_30/bias:0
(64,)
[-2.78750085e-04  1.90209012e-05  9.35812132e-05 -2.95303107e-05
  1.18943663e-05  3.83003098e-05  8.90316587e-05  3.55427474e-05
  1.14983864e-04 -2.15653145e-05  1.33223512e-04 -4.87273755e-05
  1.22672966e-04  8.79453000e-05  8.25331081e-05  1.82948643e-04
  4.61296368e-05 -2.06462100e-05 -1.35250491e-04 -2.51989622e-05
 -6.68967696e-05  3.98855118e-05  3.38696409e-05 -1.58237483e-04
 -5.20743088e-05  4.49485451e-05  5.40923720e-05  4.39649084e-05
 -1.24709086e-05  6.32603260e-05 -4.21447767e-05  2.48032273e-04
 -1.38436139e-04  8.71250086e-05  1.29332402e-04 -1.17465883e-04
  6.02810032e-05  7.07678191e-06 -1.01586083e-05  6.71117959e-05
 -8.49490461e-05 -1.12575872e-05 -4.09362619e-05  1.28329426e-04
 -1.34772999e-04  1.14888680e-04 -4.44051984e-05  4.17396805e-05
  6.77145144e-05 -1.80947551e-04 -9.29738890e-05 -1.33467711e-05
  4.46403690e-04 -2.05904042e-04 -5.08980302e-05 -9.92201603e-05
 -1.44549136e-04  5.33726925e-05 -4.83228796e-05 -2.69503944e-04
  1.16086485e-04  1.17622680e-04 -1.39525291e-04 -7.74261571e-05]
conv1d_32/kernel:0
(1, 64, 32)
[[[ 0.06252793  0.14302249  0.15761204 ...  0.07362006  0.05549873
    0.21293654]
  [-0.07721256 -0.05042683 -0.12596244 ...  0.10856608 -0.18323837
   -0.08033416]
  [ 0.16387632 -0.01944877 -0.09736247 ... -0.23526621  0.01244271
   -0.05132949]
  ...
  [ 0.19275267 -0.06562825 -0.18704684 ...  0.10589662  0.09787069
   -0.01491013]
  [ 0.20212393 -0.07667431  0.03816019 ...  0.12798052  0.23763241
   -0.09597185]
  [-0.22990279 -0.14613187 -0.20226704 ...  0.02277516  0.10959592
   -0.09346004]]]
conv1d_32/bias:0
(32,)
[ 0.00123833 -0.00272649 -0.00251974  0.00226534  0.00287173  0.00203141
 -0.00264248 -0.00322648  0.00200282 -0.00158507  0.00288     0.00138125
 -0.00264171  0.00154188 -0.00209781 -0.002357   -0.00252368  0.00139358
 -0.00278713 -0.00175932  0.00257808  0.00296641 -0.00269858 -0.00206061
 -0.00187237  0.00295968  0.00253123  0.00149826  0.00153231  0.00215493
  0.002282   -0.0004059 ]
conv1d_33/kernel:0
(2, 32, 64)
[[[-0.0777      0.14830624 -0.15896192 ...  0.16506831 -0.09548458
    0.09368292]
  [-0.0073065   0.07559087  0.1714434  ...  0.16944519  0.09354512
   -0.14628133]
  [ 0.14618084  0.14556967  0.14606664 ...  0.13641265  0.16091079
   -0.0697123 ]
  ...
  [ 0.06284586 -0.14712094  0.1682928  ... -0.16647333  0.11871201
   -0.1325713 ]
  [-0.10339215 -0.17052114  0.08369036 ... -0.03398501 -0.01982125
    0.0081472 ]
  [-0.14511967 -0.01729254  0.1523801  ... -0.01817773 -0.17631337
   -0.02786596]]

 [[-0.01359822 -0.10663034 -0.14012754 ... -0.16221876 -0.02366744
    0.00887172]
  [-0.14070325 -0.08790151  0.08014968 ... -0.00858727 -0.1297616
    0.09800903]
  [-0.08663642 -0.11913155 -0.10876958 ... -0.04832455  0.08608808
    0.08026697]
  ...
  [ 0.10662694  0.17094861 -0.09012185 ... -0.13099007  0.0680218
    0.07413545]
  [ 0.12748253 -0.01239836  0.12047125 ... -0.04711064  0.08683421
   -0.13445744]
  [-0.16711584 -0.07302178 -0.0055189  ... -0.00365118  0.08833222
    0.16194831]]]
conv1d_33/bias:0
(64,)
[ 0.00267945  0.00154399 -0.00190694 -0.00068485  0.00074597  0.00023085
 -0.00225587  0.00209714 -0.00220929 -0.00126383  0.00098978  0.00149462
 -0.00268316 -0.00100142 -0.00239892 -0.00205742 -0.00119779  0.00121417
  0.00185121 -0.00275519 -0.00114958 -0.00240333 -0.00137936  0.0029526
 -0.00256964  0.00312416  0.00202717  0.00234582  0.00107712 -0.00227153
 -0.00106756 -0.00150716  0.00154087  0.00163771  0.00249284  0.00269145
  0.00197739 -0.00092475 -0.00073628 -0.00088579 -0.0023191   0.00215953
 -0.00275869  0.00012853  0.00204781  0.0018216  -0.00230803 -0.0014705
  0.00090413 -0.00198833 -0.00274784  0.00061025 -0.00230709  0.00031992
 -0.00249742  0.00031277 -0.00186314 -0.00053794  0.00144469  0.00170125
 -0.00261926 -0.00216324  0.00051239 -0.00301882]
conv1d_34/kernel:0
(2, 32, 64)
[[[-0.01977671  0.0637816  -0.08645831 ...  0.1396473   0.04691796
   -0.04320687]
  [ 0.03736813  0.06320242  0.17124079 ...  0.01752946 -0.07988004
    0.00947238]
  [ 0.01404078 -0.00522848  0.04656028 ...  0.04781448 -0.05130491
   -0.12436189]
  ...
  [ 0.10532173 -0.06727087 -0.09607313 ... -0.02255901 -0.08930256
    0.03840941]
  [ 0.0480911   0.10312762  0.11972737 ...  0.16499686  0.12550174
   -0.07034822]
  [-0.06881073  0.12397114  0.08823057 ...  0.07221496 -0.03538521
    0.07268517]]

 [[ 0.08804881  0.02190847  0.14506832 ...  0.1300459  -0.0048929
    0.07877763]
  [ 0.10276375  0.1325717   0.10326079 ...  0.05106021  0.12096201
    0.17034145]
  [ 0.00492126  0.09383169 -0.05802387 ...  0.15219392 -0.01296279
    0.15864018]
  ...
  [ 0.08836699  0.08395947  0.01577473 ...  0.12795296 -0.11991182
   -0.11281449]
  [ 0.15545434  0.08901658 -0.11821392 ...  0.0289634   0.17630239
    0.06622016]
  [ 0.04257089  0.02003575  0.04322018 ... -0.09536914 -0.06358527
   -0.15789354]]]
conv1d_34/bias:0
(64,)
[-9.42107436e-05 -1.74434717e-05  1.15232993e-04  9.68818222e-06
  4.75809502e-05 -5.74279693e-05  1.18828306e-04 -1.76157773e-04
  2.67871255e-05 -3.10244432e-05 -2.61428737e-04  1.90605730e-04
 -2.90271928e-05  1.75255132e-04 -1.57172137e-04  1.27962761e-04
  1.12262933e-04 -3.39454382e-05 -8.74022517e-05 -2.55428953e-04
 -1.48837484e-04 -1.04906867e-04  1.28731102e-04  2.76707688e-05
  7.65444420e-05 -1.97621121e-05  5.62794012e-05  8.32867663e-05
 -1.29900203e-04  1.05311403e-04 -1.74537709e-05  1.13792586e-04
 -1.13814312e-04  3.70092457e-05 -6.53632960e-05  1.19908873e-04
 -1.49900035e-04 -1.71603591e-04 -1.61719319e-04  1.35285845e-05
  6.81056117e-05 -7.70266852e-05  1.06747961e-04  9.60785110e-05
  3.29079194e-04  2.01567338e-04  1.81720199e-04  1.72620828e-04
 -7.49793326e-05  6.72498027e-06  2.02377705e-04  6.37886660e-06
  2.17486850e-05  7.65094046e-06 -1.12140697e-07 -1.53320274e-04
  9.63788771e-05  5.40296896e-05 -8.99561564e-05  3.38811224e-05
 -6.77183707e-05 -1.66998085e-04 -1.27872947e-04 -6.04508714e-05]
conv1d_36/kernel:0
(1, 64, 32)
[[[ 0.09582583 -0.21132225 -0.18569508 ... -0.00918905  0.18230586
   -0.13051723]
  [ 0.06597353  0.12079966 -0.03860666 ...  0.05987338 -0.174728
    0.15260269]
  [-0.09050199 -0.08239193 -0.09573005 ...  0.00429376 -0.03903186
    0.10537535]
  ...
  [-0.21857597  0.10153034 -0.05359131 ...  0.10012954  0.19777668
   -0.05514048]
  [-0.01419125  0.1770079   0.24136814 ...  0.1114121   0.21833579
    0.00777632]
  [-0.24658985 -0.10426716 -0.12014554 ... -0.22530451 -0.04031566
   -0.09568593]]]
conv1d_36/bias:0
(32,)
[ 9.8383403e-04  1.4680239e-03  1.1736100e-03 -2.3398239e-03
  2.3164819e-03  2.3087407e-03 -2.9639055e-03 -2.8318043e-03
 -1.6015287e-03 -1.6868277e-03  2.2294840e-03  1.9381228e-03
 -1.6121233e-03  2.2037241e-03 -1.5416271e-03 -9.7416248e-04
 -1.5781996e-03 -5.1338924e-04 -2.8828019e-03 -3.6366066e-04
 -1.7640464e-03  2.1749795e-03 -1.4705234e-03 -2.3128812e-03
 -1.3295290e-03  2.6873518e-03  1.3731358e-03  2.8119300e-04
  1.3669344e-03 -5.4928896e-05  7.6027325e-04 -5.5632961e-04]
conv1d_37/kernel:0
(2, 32, 64)
[[[ 7.55085945e-02  1.15716204e-01 -9.23671648e-02 ... -9.40996557e-02
    8.74229074e-02 -1.12025678e-01]
  [ 8.07180554e-02  3.51653807e-02 -1.07904971e-01 ...  1.50470749e-01
    1.75769866e-01 -1.20462447e-01]
  [-1.01147257e-01  1.65385172e-01 -1.12075530e-01 ...  1.58348620e-01
    4.08344679e-02 -9.87417102e-02]
  ...
  [ 1.66311830e-01  2.16021650e-02  1.21315010e-01 ... -1.74620032e-01
   -7.42784068e-02  1.86599493e-02]
  [ 1.05079688e-01 -7.62961358e-02 -3.21380384e-02 ... -3.06339283e-02
   -5.45854010e-02  1.21808484e-01]
  [-4.98952232e-02  1.42636970e-01 -9.97069180e-02 ... -7.78268650e-02
   -1.30392075e-01  1.35462835e-01]]

 [[ 1.68065764e-02  4.92536277e-02  1.17375068e-01 ...  9.23131704e-02
    6.33172840e-02 -1.74091067e-02]
  [-5.49811199e-02 -1.00025989e-01 -6.48615807e-02 ... -1.70085251e-01
    5.85772060e-02  7.63286576e-02]
  [-7.62772709e-02 -1.75042018e-01  1.33327901e-01 ...  4.40388843e-02
   -5.35617582e-02 -1.69474900e-01]
  ...
  [ 8.83926675e-02 -1.44205183e-01  8.39893594e-02 ... -1.49918674e-03
   -1.39982283e-01  8.61096680e-02]
  [ 5.67226149e-02 -7.15824515e-02  5.84765002e-02 ...  1.67803675e-01
   -2.96551287e-02 -1.44749284e-01]
  [-6.93336427e-02  1.63964301e-01  9.60688591e-02 ...  1.45825412e-04
    3.01565323e-02 -1.59146637e-01]]]
conv1d_37/bias:0
(64,)
[ 0.00280628 -0.00069919  0.00293525  0.00155534 -0.0018208   0.00198648
  0.00144277  0.00255907  0.00028713  0.0020441   0.00098971 -0.00046426
 -0.00081306  0.00220388  0.00129498  0.0014665   0.00156035  0.00162188
  0.00208744 -0.00209323  0.00153882  0.00207174  0.00043047  0.00047147
 -0.00022335  0.00095167  0.00066172  0.00217376 -0.00290034 -0.00081444
  0.00215614  0.0020848  -0.00177524 -0.0016794   0.00235375 -0.00211622
  0.00271907  0.00085243  0.00198386  0.00243663 -0.00138108  0.001101
  0.00204546  0.00137526  0.00058113 -0.00181635 -0.00274024 -0.00257134
  0.00221351  0.00217088 -0.00133535  0.00169799  0.00289455  0.00165848
  0.00262846  0.00244787  0.00221852  0.00126784  0.00225876 -0.00233813
 -0.00251321  0.00140696 -0.00107953 -0.00041736]
conv1d_38/kernel:0
(2, 32, 64)
[[[-0.12667832  0.00872828  0.05087448 ... -0.11984582  0.1414201
    0.02819887]
  [-0.09340003 -0.0471979  -0.05423623 ... -0.13843112 -0.16024575
   -0.09930408]
  [ 0.09286328 -0.03311861 -0.08271372 ... -0.14901046  0.07370403
    0.06804594]
  ...
  [ 0.09414399 -0.11709342 -0.07378168 ... -0.07960428  0.04042152
   -0.10653115]
  [-0.07401072  0.02039791  0.14496304 ...  0.15900691 -0.1601048
    0.07629825]
  [ 0.05326555  0.15511957 -0.08283898 ... -0.13784459 -0.11100707
    0.14244139]]

 [[ 0.03119171 -0.13362879 -0.16082877 ...  0.01795552 -0.12084133
   -0.04125208]
  [-0.0471903  -0.14829601 -0.00214389 ...  0.15126894  0.09143969
    0.09910347]
  [ 0.06932045  0.07412886 -0.00431986 ...  0.00819609 -0.1593105
   -0.08725709]
  ...
  [-0.11941572 -0.01041938 -0.00883014 ... -0.07502878  0.02126488
    0.09481744]
  [-0.13030528  0.13566156  0.09559482 ... -0.05941195  0.03292118
   -0.08262485]
  [ 0.00969223  0.13135849 -0.13901676 ... -0.02146901  0.04538612
    0.11384452]]]
conv1d_38/bias:0
(64,)
[ 1.8979381e-04  1.6534101e-04 -5.9272166e-05  4.1107305e-05
  6.2249965e-05  3.2907404e-04 -1.2678593e-04 -8.4099156e-08
 -6.7420879e-05  9.4564020e-05  3.4823120e-06 -1.0904238e-04
 -7.4752177e-05 -1.0025938e-04  1.4728661e-04 -9.3702525e-05
  2.6701277e-05 -1.9182714e-04  1.3179910e-05  3.1459343e-04
 -1.2350580e-04 -5.2665921e-05 -1.0816109e-05 -5.5842029e-05
 -4.0480561e-05 -1.0352225e-05 -9.3632611e-05 -3.7963073e-05
 -2.8346712e-04 -1.9350768e-05  7.5184675e-05  2.8925703e-04
 -5.5670698e-05 -4.5905317e-06 -2.8341488e-05 -7.8998601e-05
  3.1206873e-05  7.9747741e-05 -1.3019174e-04  1.1304563e-05
 -1.4961284e-04  6.3334861e-05  2.4416094e-04  3.3843055e-05
  7.8469435e-05 -2.2935747e-05 -1.5914447e-05 -3.4569122e-05
  2.2259990e-05  9.9022174e-05 -1.2172499e-04 -1.0058786e-05
 -2.6147737e-04  1.9539963e-04 -9.6274771e-06 -1.4456107e-05
  8.4900406e-05  8.0975784e-05  1.3950830e-05 -9.3811897e-05
  5.8592195e-05 -7.6015363e-05  3.9436789e-05  1.7846607e-04]
conv1d_3/kernel:0
(1, 64, 64)
[[[ 0.12024069  0.19139145  0.13120002 ...  0.08452774 -0.03036152
   -0.16434301]
  [-0.05048993 -0.18769264  0.04630715 ... -0.15560615 -0.09326561
    0.00574792]
  [-0.12755537  0.08279787  0.09219365 ... -0.1636116  -0.14203754
    0.17068242]
  ...
  [ 0.10991431  0.17530032 -0.07657141 ...  0.00166543  0.10289969
    0.20710656]
  [-0.05940228  0.17069703  0.12098311 ...  0.05741338  0.18852994
    0.07228394]
  [-0.12780006  0.20916755 -0.0011801  ... -0.16468045  0.07711423
    0.02186332]]]
conv1d_3/bias:0
(64,)
[-2.4018080e-03  2.0434835e-03  3.0641721e-03 -3.0344925e-03
  3.2784366e-03 -2.7333952e-03 -2.7414798e-03  2.0874483e-03
  2.4152207e-03  2.0507486e-03 -2.8977834e-03 -2.3049028e-03
  2.4379743e-04  2.0312285e-03  1.7233014e-03  3.4300769e-03
  2.3723769e-03 -1.9840309e-03  2.6797922e-03  2.2407493e-03
 -2.9801789e-03 -1.9848922e-03 -1.3302149e-03  1.6126460e-03
 -7.2934723e-04  2.1439670e-03  2.9809107e-03  2.9557250e-03
 -2.3694928e-03  1.1335537e-03  2.4202168e-03  3.0054362e-03
 -2.2568465e-03 -2.0545362e-03 -1.6798927e-03 -2.8096759e-03
 -2.4692365e-03  1.1446509e-03  9.4472198e-04 -2.8952211e-04
 -1.0204357e-03 -2.7152339e-03  3.5392542e-05  3.5828407e-04
  2.3917658e-03  2.7564240e-03  4.7556503e-04  2.4759336e-03
  3.0397938e-03 -2.7762786e-03 -1.9948706e-03  2.8821575e-03
  1.2347286e-03 -2.5927341e-03 -1.8901145e-03 -2.8026733e-03
  1.0092169e-03 -2.7470274e-03  2.4269612e-03 -2.8193160e-03
 -3.1688306e-03  2.2703810e-03  1.2986595e-03 -3.2424235e-03]
conv1d_7/kernel:0
(1, 64, 64)
[[[-0.1514483   0.09866033  0.19460596 ... -0.01645451 -0.15300474
    0.04878456]
  [ 0.02644361 -0.03228433  0.0558175  ... -0.01793688  0.06262425
    0.00144011]
  [ 0.07393333 -0.00575113 -0.1007448  ... -0.08148311 -0.15437956
    0.14812085]
  ...
  [ 0.2063877   0.19737618 -0.08074373 ...  0.20138562 -0.05519557
    0.07007005]
  [-0.01029005 -0.06773286 -0.00071814 ... -0.07826457  0.04541678
   -0.13381362]
  [ 0.14657696 -0.21258171 -0.16072497 ...  0.04271572 -0.15534493
   -0.03741355]]]
conv1d_7/bias:0
(64,)
[-2.4018080e-03  2.0434835e-03  3.0641721e-03 -3.0344925e-03
  3.2784366e-03 -2.7333952e-03 -2.7414798e-03  2.0874483e-03
  2.4152207e-03  2.0507486e-03 -2.8977834e-03 -2.3049028e-03
  2.4379743e-04  2.0312285e-03  1.7233014e-03  3.4300769e-03
  2.3723769e-03 -1.9840309e-03  2.6797922e-03  2.2407493e-03
 -2.9801789e-03 -1.9848922e-03 -1.3302149e-03  1.6126460e-03
 -7.2934723e-04  2.1439670e-03  2.9809107e-03  2.9557250e-03
 -2.3694928e-03  1.1335537e-03  2.4202168e-03  3.0054362e-03
 -2.2568465e-03 -2.0545362e-03 -1.6798927e-03 -2.8096759e-03
 -2.4692365e-03  1.1446509e-03  9.4472198e-04 -2.8952211e-04
 -1.0204357e-03 -2.7152339e-03  3.5392542e-05  3.5828407e-04
  2.3917658e-03  2.7564240e-03  4.7556503e-04  2.4759336e-03
  3.0397938e-03 -2.7762786e-03 -1.9948706e-03  2.8821575e-03
  1.2347286e-03 -2.5927341e-03 -1.8901145e-03 -2.8026733e-03
  1.0092169e-03 -2.7470274e-03  2.4269612e-03 -2.8193160e-03
 -3.1688306e-03  2.2703810e-03  1.2986595e-03 -3.2424235e-03]
conv1d_11/kernel:0
(1, 64, 64)
[[[ 0.09125928  0.04206166  0.03766058 ... -0.02983009 -0.13681385
    0.03165172]
  [ 0.13283959  0.11027852 -0.2051183  ... -0.03984384 -0.06767596
   -0.1869355 ]
  [-0.01645471  0.15510575 -0.1207009  ...  0.03866506  0.07998601
    0.08499196]
  ...
  [-0.01407242  0.05920694  0.02867329 ...  0.17573723 -0.14915279
   -0.09631906]
  [-0.16370778  0.08792584 -0.06588985 ... -0.18304588 -0.01811784
    0.21356015]
  [-0.1698864   0.13685398 -0.19260834 ...  0.10087846 -0.10405176
   -0.08027694]]]
conv1d_11/bias:0
(64,)
[-2.4018080e-03  2.0434835e-03  3.0641721e-03 -3.0344925e-03
  3.2784366e-03 -2.7333952e-03 -2.7414798e-03  2.0874483e-03
  2.4152207e-03  2.0507486e-03 -2.8977834e-03 -2.3049028e-03
  2.4379743e-04  2.0312285e-03  1.7233014e-03  3.4300769e-03
  2.3723769e-03 -1.9840309e-03  2.6797922e-03  2.2407493e-03
 -2.9801789e-03 -1.9848922e-03 -1.3302149e-03  1.6126460e-03
 -7.2934723e-04  2.1439670e-03  2.9809107e-03  2.9557250e-03
 -2.3694928e-03  1.1335537e-03  2.4202168e-03  3.0054362e-03
 -2.2568465e-03 -2.0545362e-03 -1.6798927e-03 -2.8096759e-03
 -2.4692365e-03  1.1446509e-03  9.4472198e-04 -2.8952211e-04
 -1.0204357e-03 -2.7152339e-03  3.5392542e-05  3.5828407e-04
  2.3917658e-03  2.7564240e-03  4.7556503e-04  2.4759336e-03
  3.0397938e-03 -2.7762786e-03 -1.9948706e-03  2.8821575e-03
  1.2347286e-03 -2.5927341e-03 -1.8901145e-03 -2.8026733e-03
  1.0092169e-03 -2.7470274e-03  2.4269612e-03 -2.8193160e-03
 -3.1688306e-03  2.2703810e-03  1.2986595e-03 -3.2424235e-03]
conv1d_15/kernel:0
(1, 64, 64)
[[[-0.06553238  0.19888273 -0.00974167 ...  0.03683181  0.18002994
   -0.1648012 ]
  [ 0.11998922 -0.0990025   0.03229444 ...  0.01091594  0.14966391
    0.10258263]
  [ 0.01185786 -0.10531156 -0.17289269 ...  0.06081515 -0.19392273
   -0.20571785]
  ...
  [ 0.13031158  0.04062495 -0.01634501 ... -0.04842938  0.03264153
    0.03021916]
  [ 0.1188501   0.16767174 -0.20805821 ...  0.09937186 -0.07117134
    0.11025772]
  [-0.10919587  0.2070296   0.04504326 ...  0.1160476   0.04008064
    0.0071944 ]]]
conv1d_15/bias:0
(64,)
[-2.4018080e-03  2.0434835e-03  3.0641721e-03 -3.0344925e-03
  3.2784366e-03 -2.7333952e-03 -2.7414798e-03  2.0874483e-03
  2.4152207e-03  2.0507486e-03 -2.8977834e-03 -2.3049028e-03
  2.4379743e-04  2.0312285e-03  1.7233014e-03  3.4300769e-03
  2.3723769e-03 -1.9840309e-03  2.6797922e-03  2.2407493e-03
 -2.9801789e-03 -1.9848922e-03 -1.3302149e-03  1.6126460e-03
 -7.2934723e-04  2.1439670e-03  2.9809107e-03  2.9557250e-03
 -2.3694928e-03  1.1335537e-03  2.4202168e-03  3.0054362e-03
 -2.2568465e-03 -2.0545362e-03 -1.6798927e-03 -2.8096759e-03
 -2.4692365e-03  1.1446509e-03  9.4472198e-04 -2.8952211e-04
 -1.0204357e-03 -2.7152339e-03  3.5392542e-05  3.5828407e-04
  2.3917658e-03  2.7564240e-03  4.7556503e-04  2.4759336e-03
  3.0397938e-03 -2.7762786e-03 -1.9948706e-03  2.8821575e-03
  1.2347286e-03 -2.5927341e-03 -1.8901145e-03 -2.8026733e-03
  1.0092169e-03 -2.7470274e-03  2.4269612e-03 -2.8193160e-03
 -3.1688306e-03  2.2703810e-03  1.2986595e-03 -3.2424235e-03]
conv1d_19/kernel:0
(1, 64, 64)
[[[-0.1865865  -0.01213964  0.06239986 ...  0.18628636  0.15361409
    0.09398957]
  [ 0.00074037  0.05659167 -0.19697116 ...  0.06331999  0.10053337
    0.11323576]
  [-0.04163365 -0.18021105  0.17096142 ... -0.13337141  0.16926531
   -0.1599997 ]
  ...
  [ 0.15932788 -0.002358   -0.11365482 ... -0.05890558 -0.19745457
   -0.20262352]
  [-0.08271365 -0.09252802  0.12747018 ...  0.04440333 -0.17967285
    0.02409973]
  [ 0.07947924  0.05036168  0.20606121 ... -0.15712813  0.0040666
    0.00654753]]]
conv1d_19/bias:0
(64,)
[-2.4018080e-03  2.0434835e-03  3.0641721e-03 -3.0344925e-03
  3.2784366e-03 -2.7333952e-03 -2.7414798e-03  2.0874483e-03
  2.4152207e-03  2.0507486e-03 -2.8977834e-03 -2.3049028e-03
  2.4379743e-04  2.0312285e-03  1.7233014e-03  3.4300769e-03
  2.3723769e-03 -1.9840309e-03  2.6797922e-03  2.2407493e-03
 -2.9801789e-03 -1.9848922e-03 -1.3302149e-03  1.6126460e-03
 -7.2934723e-04  2.1439670e-03  2.9809107e-03  2.9557250e-03
 -2.3694928e-03  1.1335537e-03  2.4202168e-03  3.0054362e-03
 -2.2568465e-03 -2.0545362e-03 -1.6798927e-03 -2.8096759e-03
 -2.4692365e-03  1.1446509e-03  9.4472198e-04 -2.8952211e-04
 -1.0204357e-03 -2.7152339e-03  3.5392542e-05  3.5828407e-04
  2.3917658e-03  2.7564240e-03  4.7556503e-04  2.4759336e-03
  3.0397938e-03 -2.7762786e-03 -1.9948706e-03  2.8821575e-03
  1.2347286e-03 -2.5927341e-03 -1.8901145e-03 -2.8026733e-03
  1.0092169e-03 -2.7470274e-03  2.4269612e-03 -2.8193160e-03
 -3.1688306e-03  2.2703810e-03  1.2986595e-03 -3.2424235e-03]
conv1d_23/kernel:0
(1, 64, 64)
[[[-0.14227542 -0.02976552 -0.02046784 ... -0.01302758 -0.10928261
    0.1372736 ]
  [-0.16206892  0.12197818  0.14745593 ...  0.1764771  -0.19588225
   -0.09594236]
  [-0.13723707  0.08386469 -0.13257004 ...  0.09309973 -0.03446237
   -0.03754077]
  ...
  [ 0.15828265  0.1210749   0.00969632 ...  0.19149666  0.18975802
   -0.2002465 ]
  [ 0.00940192 -0.15079477 -0.00108745 ...  0.13733506 -0.01795477
   -0.17527606]
  [ 0.00414692  0.18648753 -0.19937271 ... -0.00054374  0.00862538
   -0.14925525]]]
conv1d_23/bias:0
(64,)
[-2.4018080e-03  2.0434835e-03  3.0641721e-03 -3.0344925e-03
  3.2784366e-03 -2.7333952e-03 -2.7414798e-03  2.0874483e-03
  2.4152207e-03  2.0507486e-03 -2.8977834e-03 -2.3049028e-03
  2.4379743e-04  2.0312285e-03  1.7233014e-03  3.4300769e-03
  2.3723769e-03 -1.9840309e-03  2.6797922e-03  2.2407493e-03
 -2.9801789e-03 -1.9848922e-03 -1.3302149e-03  1.6126460e-03
 -7.2934723e-04  2.1439670e-03  2.9809107e-03  2.9557250e-03
 -2.3694928e-03  1.1335537e-03  2.4202168e-03  3.0054362e-03
 -2.2568465e-03 -2.0545362e-03 -1.6798927e-03 -2.8096759e-03
 -2.4692365e-03  1.1446509e-03  9.4472198e-04 -2.8952211e-04
 -1.0204357e-03 -2.7152339e-03  3.5392542e-05  3.5828407e-04
  2.3917658e-03  2.7564240e-03  4.7556503e-04  2.4759336e-03
  3.0397938e-03 -2.7762786e-03 -1.9948706e-03  2.8821575e-03
  1.2347286e-03 -2.5927341e-03 -1.8901145e-03 -2.8026733e-03
  1.0092169e-03 -2.7470274e-03  2.4269612e-03 -2.8193160e-03
 -3.1688306e-03  2.2703810e-03  1.2986595e-03 -3.2424235e-03]
conv1d_27/kernel:0
(1, 64, 64)
[[[ 1.15378961e-01 -1.90485239e-01 -5.05058840e-02 ...  1.48161441e-01
   -1.13866627e-01 -1.80355504e-01]
  [-3.48172896e-02  1.64104924e-01 -1.26010507e-01 ...  6.92830607e-02
    1.95985347e-01 -1.07257374e-01]
  [-1.09021232e-04  1.95288181e-01  1.22054353e-01 ...  1.56504735e-01
    4.60033352e-03  1.21683404e-01]
  ...
  [-6.81160390e-02  7.71708116e-02 -2.48857085e-02 ...  1.13345802e-01
    1.71013221e-01  3.35164964e-02]
  [ 6.27978519e-02 -1.04430355e-01 -2.83870474e-02 ...  2.12857425e-01
   -7.10473284e-02 -1.94313213e-01]
  [-1.64285243e-01 -2.38522552e-02 -8.84367600e-02 ... -5.90327606e-02
    6.98298514e-02  1.86766252e-01]]]
conv1d_27/bias:0
(64,)
[-2.4018080e-03  2.0434835e-03  3.0641721e-03 -3.0344925e-03
  3.2784366e-03 -2.7333952e-03 -2.7414798e-03  2.0874483e-03
  2.4152207e-03  2.0507486e-03 -2.8977834e-03 -2.3049028e-03
  2.4379743e-04  2.0312285e-03  1.7233014e-03  3.4300769e-03
  2.3723769e-03 -1.9840309e-03  2.6797922e-03  2.2407493e-03
 -2.9801789e-03 -1.9848922e-03 -1.3302149e-03  1.6126460e-03
 -7.2934723e-04  2.1439670e-03  2.9809107e-03  2.9557250e-03
 -2.3694928e-03  1.1335537e-03  2.4202168e-03  3.0054362e-03
 -2.2568465e-03 -2.0545362e-03 -1.6798927e-03 -2.8096759e-03
 -2.4692365e-03  1.1446509e-03  9.4472198e-04 -2.8952211e-04
 -1.0204357e-03 -2.7152339e-03  3.5392542e-05  3.5828407e-04
  2.3917658e-03  2.7564240e-03  4.7556503e-04  2.4759336e-03
  3.0397938e-03 -2.7762786e-03 -1.9948706e-03  2.8821575e-03
  1.2347286e-03 -2.5927341e-03 -1.8901145e-03 -2.8026733e-03
  1.0092169e-03 -2.7470274e-03  2.4269612e-03 -2.8193160e-03
 -3.1688306e-03  2.2703810e-03  1.2986595e-03 -3.2424235e-03]
conv1d_31/kernel:0
(1, 64, 64)
[[[-0.09731348  0.0288343  -0.09756631 ...  0.19472791 -0.12343075
   -0.07716817]
  [ 0.1470794  -0.03105767 -0.21328437 ... -0.21403107 -0.03859984
   -0.1286332 ]
  [ 0.09831414  0.17783691  0.09851135 ...  0.06237445 -0.14296809
   -0.19114663]
  ...
  [ 0.1282736   0.13926232  0.16101341 ...  0.03364159 -0.04376256
    0.00974914]
  [-0.18550095  0.16173354 -0.01170653 ... -0.1385256   0.20013389
    0.18853976]
  [-0.1638594  -0.1486902   0.12958929 ...  0.18111229 -0.05447651
    0.17282027]]]
conv1d_31/bias:0
(64,)
[-2.4018080e-03  2.0434835e-03  3.0641721e-03 -3.0344925e-03
  3.2784366e-03 -2.7333952e-03 -2.7414798e-03  2.0874483e-03
  2.4152207e-03  2.0507486e-03 -2.8977834e-03 -2.3049028e-03
  2.4379743e-04  2.0312285e-03  1.7233014e-03  3.4300769e-03
  2.3723769e-03 -1.9840309e-03  2.6797922e-03  2.2407493e-03
 -2.9801789e-03 -1.9848922e-03 -1.3302149e-03  1.6126460e-03
 -7.2934723e-04  2.1439670e-03  2.9809107e-03  2.9557250e-03
 -2.3694928e-03  1.1335537e-03  2.4202168e-03  3.0054362e-03
 -2.2568465e-03 -2.0545362e-03 -1.6798927e-03 -2.8096759e-03
 -2.4692365e-03  1.1446509e-03  9.4472198e-04 -2.8952211e-04
 -1.0204357e-03 -2.7152339e-03  3.5392542e-05  3.5828407e-04
  2.3917658e-03  2.7564240e-03  4.7556503e-04  2.4759336e-03
  3.0397938e-03 -2.7762786e-03 -1.9948706e-03  2.8821575e-03
  1.2347286e-03 -2.5927341e-03 -1.8901145e-03 -2.8026733e-03
  1.0092169e-03 -2.7470274e-03  2.4269612e-03 -2.8193160e-03
 -3.1688306e-03  2.2703810e-03  1.2986595e-03 -3.2424235e-03]
conv1d_35/kernel:0
(1, 64, 64)
[[[ 0.19918475 -0.0147833  -0.06560631 ... -0.19644886  0.17687032
   -0.18664993]
  [-0.16009903 -0.1839721   0.05692433 ...  0.07221523 -0.12548867
    0.19837295]
  [-0.14743957 -0.12897101  0.0576303  ...  0.19028759 -0.09510918
    0.15851268]
  ...
  [-0.17514132 -0.0934099  -0.01460581 ...  0.1251031  -0.07873217
    0.1223468 ]
  [ 0.17343883  0.07263321 -0.10834046 ...  0.0468049  -0.11644509
   -0.11700662]
  [ 0.06775256  0.14408797  0.00993122 ... -0.00080319 -0.07716732
    0.16284823]]]
conv1d_35/bias:0
(64,)
[-2.4018080e-03  2.0434835e-03  3.0641721e-03 -3.0344925e-03
  3.2784366e-03 -2.7333952e-03 -2.7414798e-03  2.0874483e-03
  2.4152207e-03  2.0507486e-03 -2.8977834e-03 -2.3049028e-03
  2.4379743e-04  2.0312285e-03  1.7233014e-03  3.4300769e-03
  2.3723769e-03 -1.9840309e-03  2.6797922e-03  2.2407493e-03
 -2.9801789e-03 -1.9848922e-03 -1.3302149e-03  1.6126460e-03
 -7.2934723e-04  2.1439670e-03  2.9809107e-03  2.9557250e-03
 -2.3694928e-03  1.1335537e-03  2.4202168e-03  3.0054362e-03
 -2.2568465e-03 -2.0545362e-03 -1.6798927e-03 -2.8096759e-03
 -2.4692365e-03  1.1446509e-03  9.4472198e-04 -2.8952211e-04
 -1.0204357e-03 -2.7152339e-03  3.5392542e-05  3.5828407e-04
  2.3917658e-03  2.7564240e-03  4.7556503e-04  2.4759336e-03
  3.0397938e-03 -2.7762786e-03 -1.9948706e-03  2.8821575e-03
  1.2347286e-03 -2.5927341e-03 -1.8901145e-03 -2.8026733e-03
  1.0092169e-03 -2.7470274e-03  2.4269612e-03 -2.8193160e-03
 -3.1688306e-03  2.2703810e-03  1.2986595e-03 -3.2424235e-03]
conv1d_39/kernel:0
(1, 64, 64)
[[[ 1.1917305e-01 -8.1597917e-02  4.8692655e-02 ... -6.6237174e-02
   -1.2501673e-01 -7.3790595e-02]
  [-1.2633221e-01 -8.2104139e-05 -1.1584477e-01 ... -1.6035004e-01
   -5.1741373e-02 -1.0695560e-01]
  [-1.8129173e-01  1.1539130e-01  3.5876330e-02 ... -1.5211208e-01
   -1.9000292e-01  7.7606440e-02]
  ...
  [ 3.4030125e-02  1.7061499e-01 -1.5273745e-01 ...  7.9804346e-02
    1.4650050e-01 -1.0439623e-01]
  [ 2.1094672e-01  3.5260472e-02  9.9642739e-02 ...  9.7570740e-02
   -1.7628650e-01 -1.0272910e-01]
  [-4.2713545e-03  2.1268085e-01 -1.3837998e-01 ... -2.1145228e-01
    2.1511742e-01 -8.2649417e-02]]]
conv1d_39/bias:0
(64,)
[-2.4018080e-03  2.0434835e-03  3.0641721e-03 -3.0344925e-03
  3.2784366e-03 -2.7333952e-03 -2.7414798e-03  2.0874483e-03
  2.4152207e-03  2.0507486e-03 -2.8977834e-03 -2.3049028e-03
  2.4379743e-04  2.0312285e-03  1.7233014e-03  3.4300769e-03
  2.3723769e-03 -1.9840309e-03  2.6797922e-03  2.2407493e-03
 -2.9801789e-03 -1.9848922e-03 -1.3302149e-03  1.6126460e-03
 -7.2934723e-04  2.1439670e-03  2.9809107e-03  2.9557250e-03
 -2.3694928e-03  1.1335537e-03  2.4202168e-03  3.0054362e-03
 -2.2568465e-03 -2.0545362e-03 -1.6798927e-03 -2.8096759e-03
 -2.4692365e-03  1.1446509e-03  9.4472198e-04 -2.8952211e-04
 -1.0204357e-03 -2.7152339e-03  3.5392542e-05  3.5828407e-04
  2.3917658e-03  2.7564240e-03  4.7556503e-04  2.4759336e-03
  3.0397938e-03 -2.7762786e-03 -1.9948706e-03  2.8821575e-03
  1.2347286e-03 -2.5927341e-03 -1.8901145e-03 -2.8026733e-03
  1.0092169e-03 -2.7470274e-03  2.4269612e-03 -2.8193160e-03
 -3.1688306e-03  2.2703810e-03  1.2986595e-03 -3.2424235e-03]
conv1d_40/kernel:0
(1, 64, 128)
[[[ 0.07793012 -0.02401605 -0.01923827 ...  0.08364012 -0.06729343
    0.01426915]
  [-0.0169415   0.0471428  -0.1744958  ...  0.16741197  0.16885209
    0.04916539]
  [ 0.09475009 -0.00243818 -0.02705217 ... -0.10798072  0.00931802
   -0.05366651]
  ...
  [-0.10928611  0.02649623 -0.0990795  ... -0.06845975  0.1635659
    0.01087991]
  [-0.06762622  0.14102025  0.01843546 ... -0.06734154  0.13381392
   -0.1094092 ]
  [-0.01478095  0.00355067  0.14244126 ...  0.06370579 -0.16402546
   -0.12550944]]]
conv1d_40/bias:0
(128,)
[-1.54438673e-03 -1.11583481e-03 -3.08229658e-03  6.32191077e-04
  1.50603009e-03  3.40183126e-03 -1.43658230e-03  3.22225154e-03
  2.46801088e-03  1.61503907e-03 -1.79644348e-03  1.26981747e-03
 -2.97563709e-03 -1.64685701e-03  2.92348396e-03  3.57301626e-03
 -2.09135213e-03 -3.10960389e-03 -1.10998575e-03  9.65169864e-04
  2.95060384e-03 -2.49248650e-03 -2.71278853e-03  2.05033110e-03
 -5.87559014e-04 -2.75890855e-03 -3.09253624e-03  1.76270097e-03
 -3.20685236e-03  1.01976213e-03 -2.84416950e-03 -1.31938560e-03
  2.40836572e-03  1.25784194e-03 -8.06377968e-04  1.75726588e-03
  6.04277418e-04  2.42381077e-03  2.42050993e-03 -2.64503324e-05
 -3.15768481e-03 -1.90609106e-04  2.77858553e-03  1.79475325e-03
 -8.68482603e-05  3.33800586e-03 -1.18537864e-03  6.71007263e-04
 -2.56020809e-03  3.46118846e-04  2.39576166e-03  1.39442715e-03
  3.19707999e-03  2.72508152e-03  2.01179623e-03  3.10463505e-03
  2.78400490e-03 -2.60766945e-03  3.33791994e-03  3.09861545e-03
  7.67097343e-04  9.52741771e-04  7.76372734e-04 -3.40649672e-03
 -1.65252353e-03  3.23305349e-03 -1.16820517e-03  3.17188958e-03
  7.59247807e-04 -8.05588730e-04 -2.82349624e-03  2.93887639e-03
  1.89092685e-03 -9.05796769e-04 -1.63141475e-03  1.71832158e-03
  7.77250971e-05  2.46807863e-03 -3.30055528e-03 -7.85703247e-04
 -2.64637894e-03 -1.34536740e-03  4.63149277e-04  1.59328547e-03
 -2.63391016e-03 -9.23434622e-04 -1.95273710e-03  3.09495395e-03
 -3.04372236e-03 -1.95293571e-03 -2.49777548e-03  2.71241437e-03
 -1.30982022e-03 -1.91052572e-03 -2.90097995e-03 -2.11958704e-03
  1.23644469e-03  3.59026482e-03 -1.58065045e-03  6.93335023e-04
 -2.24280800e-03 -1.66291767e-03 -1.04782535e-04  2.29307218e-03
 -3.39331664e-03 -2.61279102e-03 -3.15961288e-03 -1.66683504e-03
  3.04386998e-03 -1.77051919e-03  1.51535077e-03 -2.65991385e-03
 -2.44527194e-03 -1.68975489e-03  1.74577115e-03 -2.25342973e-03
  3.06156510e-03  1.44388131e-03  2.53512408e-04  3.00938904e-04
 -3.00720939e-03 -2.56616622e-03  3.18134157e-03 -2.87765032e-03
 -6.96475036e-04 -2.44714227e-03  3.04449396e-03  9.01417807e-04]
conv1d_41/kernel:0
(1, 128, 256)
[[[-0.06682639 -0.04980648 -0.00889797 ... -0.01590528 -0.08669505
    0.02904905]
  [ 0.0733334  -0.02428207  0.12276506 ...  0.07340293 -0.10364813
   -0.09421524]
  [ 0.09277354 -0.08742332 -0.10680597 ...  0.1058794  -0.01211511
   -0.09294603]
  ...
  [-0.02147277 -0.04748162  0.020021   ...  0.03056188  0.11037902
   -0.03265452]
  [ 0.0578336   0.00273696  0.05313599 ... -0.05903327 -0.01673418
   -0.1039777 ]
  [ 0.09035876  0.04097359 -0.07841697 ...  0.09620513 -0.03049922
   -0.08869787]]]
conv1d_41/bias:0
(256,)
[-3.43796471e-03 -3.46161891e-03 -3.46293580e-03 -3.47386673e-03
 -3.41818156e-03 -3.35778785e-03 -3.06022493e-03 -3.15252366e-03
 -2.68639647e-03 -2.89132050e-03 -2.64450000e-03 -2.80237338e-03
 -1.03525724e-03 -1.51693856e-03  2.42158817e-03  2.52651423e-03
  3.06764361e-03  2.91072158e-03  2.94988137e-03  3.36115109e-03
  3.33162956e-03  3.18835420e-03  3.30260419e-03  3.51406750e-03
  3.48353246e-03  3.49627528e-03  3.44761997e-03  3.58060445e-03
  3.58228828e-03  3.57290125e-03  3.55494535e-03  3.50978319e-03
  3.60398693e-03  3.62898945e-03  3.60395829e-03  3.49506945e-03
  3.45315225e-03  3.48765054e-03  3.42547847e-03  3.49041587e-03
  3.34945344e-03  3.44401877e-03  3.32742231e-03  3.03450204e-03
  3.33273271e-03  3.09566688e-03  2.93611642e-03  3.07656545e-03
  3.23456805e-03  3.14873271e-03  2.79232860e-03  2.41915835e-03
  2.81158974e-03  2.15364480e-03  2.41460418e-03  2.34138151e-03
  9.49840003e-04  2.33725086e-03  4.18630225e-06  1.55307911e-03
  1.17198471e-03 -3.54656979e-04 -2.39553570e-04 -1.59642717e-03
 -2.54622614e-03 -2.38621444e-03 -2.42729392e-03 -2.83654383e-03
 -2.62282160e-03  1.02859034e-04 -1.23720104e-03 -4.36605071e-04
 -1.35892490e-03 -1.05103105e-03 -9.46889573e-04  5.15787862e-04
 -9.85872466e-04 -8.35908228e-04 -4.93880187e-04 -6.61434839e-04
  2.24787058e-04 -6.54688163e-04 -6.56347664e-04 -1.31731050e-03
 -1.43146876e-03 -1.69759127e-03 -1.21448841e-03 -2.14869692e-03
 -2.13375571e-03 -4.39797092e-04 -1.69246504e-03 -2.12077214e-03
 -1.82608410e-03 -2.74246023e-03 -2.80504487e-03 -2.81121628e-03
 -2.94495770e-03 -3.02079460e-03 -2.94483081e-03 -2.96516623e-03
 -3.11250542e-03 -2.97501869e-03 -3.31363175e-03 -3.13952006e-03
 -3.02643701e-03 -3.28049064e-03 -3.08304699e-03 -3.18167708e-03
 -3.34492978e-03 -3.25665576e-03 -3.25145153e-03 -3.25097842e-03
 -3.30304098e-03 -3.24629992e-03 -3.32773430e-03 -3.27080209e-03
 -3.36578488e-03 -3.35256150e-03 -3.34029878e-03 -3.30398977e-03
 -3.39603471e-03 -3.29999789e-03 -3.33616626e-03 -3.37757752e-03
 -3.29659530e-03 -3.46124452e-03 -3.35973362e-03 -3.29161203e-03
 -3.38667701e-03 -3.38455569e-03 -3.39360489e-03 -3.37706087e-03
 -3.30574554e-03 -3.39316484e-03 -3.33741191e-03 -3.34868976e-03
 -3.35395150e-03 -3.29497014e-03 -3.34336027e-03 -3.34888021e-03
 -3.42973648e-03 -3.34748742e-03 -3.34799988e-03 -3.38124996e-03
 -3.18104401e-03 -3.33460979e-03 -3.26674012e-03 -3.35390540e-03
 -3.27516370e-03 -3.14286910e-03 -3.15592764e-03 -3.23063321e-03
 -3.20000993e-03 -3.24545242e-03 -3.12598795e-03 -3.17910546e-03
 -2.79821013e-03 -2.53966590e-03 -2.52876244e-03 -2.68449867e-03
 -2.83228233e-03 -2.63923313e-03 -2.65232008e-03 -2.52075749e-03
 -2.57819961e-03 -2.07995856e-03 -2.24586041e-03 -1.31439872e-03
 -1.98642677e-03 -1.63706264e-03 -1.73333636e-03 -3.27576825e-04
 -7.76766450e-04  1.05928062e-04  1.06090192e-04 -6.23844448e-04
 -1.84280495e-03 -8.99330946e-04 -1.06070004e-03 -1.56364680e-04
  2.25862081e-04  4.28376341e-04  5.56264655e-04  6.57259603e-04
 -5.80445048e-04 -2.73611210e-03 -1.95186120e-03 -2.17739493e-03
 -1.50961871e-03 -2.18811459e-04 -9.69581481e-04 -2.40996527e-03
 -1.96561264e-03 -9.55210067e-04  6.13203039e-04 -1.87719078e-03
 -2.82265188e-04  9.11959447e-04  1.99150573e-03  2.80581741e-03
  1.96652696e-03  2.16117455e-03  2.53300881e-03  2.62739067e-03
  2.53966148e-03  2.55912007e-03  2.87207542e-03  2.44116411e-03
  3.08066281e-03  3.00143519e-03  3.24428477e-03  3.10503738e-03
  3.22701642e-03  3.12659750e-03  2.91556469e-03  3.16850585e-03
  3.33628897e-03  3.25250928e-03  3.16975149e-03  3.22713656e-03
  3.08104977e-03  3.31339054e-03  3.27819842e-03  3.29038850e-03
  3.27266892e-03  3.21730878e-03  3.37121892e-03  3.07736057e-03
  3.28987534e-03  3.47854337e-03  3.18953698e-03  3.40054231e-03
  3.45336809e-03  3.37704364e-03  3.14962445e-03  2.09217682e-03
  1.23874634e-03  1.22673868e-03  1.89689174e-03  2.17039138e-03
  1.10849622e-03 -1.69950188e-03 -8.18630739e-04  4.30399727e-04
 -1.99699192e-04  9.95149720e-04 -2.88160658e-03 -2.91922735e-03
 -3.04864859e-03 -3.40676354e-03 -3.39021510e-03 -3.44872824e-03
 -3.47115425e-03 -3.46871885e-03 -3.45082791e-03 -3.46059655e-03]
